\data\
ngram 1=59431

\1-grams:
-5.458478	<unk>
0	<s>
-5.31798	</s>
-3.0857224	﻿
-4.237987	дмитро
-5.0369368	завадський
-4.499932	переміг
-1.7610701	на
-4.3680563	етапі
-4.499932	кубка
-3.902602	європи
-1.9383129	з
-5.1932235	бадмінтону
-3.3049989	київ
-5.0369368	харківська
-4.3317094	ода
-5.1932235	одиночній
-1.9454176	—
-5.31798	індивідуальній
-2.8234315	по
-2.3768997	від
-2.028182	до
-4.778177	здолав
-5.0369368	керанн
-5.0369368	фіналу
-1.849295	у
-5.0369368	фіналі
-2.961009	який
-4.4513865	березня
-5.0369368	відбувався
-5.1932235	французькому
-3.7694829	місті
-5.31798	орлеан
-5.1932235	харківянин
-4.690238	здобув
-4.8885636	золоту
-5.0369368	медаль
-1.86651	в
-4.499932	категорії
-3.9293728	шляху
-4.5545945	золота
-5.31798	обіграв
-5.0369368	росіянина
-4.407726	володимира
-5.31798	малькова
-4.8885636	наступному
-5.0369368	раунді
-5.31798	француза
-5.31798	томаса
-5.31798	рукселя
-4.499932	рахунком
-5.31798	чвертьфіналі
-5.31798	крістіана
-5.31798	лінд
-5.31798	томпсена
-5.31798	данії
-5.31798	півфіналі
-5.1932235	напруженому
-4.8885636	матчі
-5.31798	мерріліз
-5.31798	шотландії
-5.31798	суперником
-5.31798	харківянина
-3.5610447	став
-5.31798	андре
-5.31798	курняван
-5.31798	теджон
-5.31798	індонезії
-2.4094281	його
-3.7791438	двох
-5.31798	сетах
-2.0652552	та
-5.1932235	завоював
-3.5493782	крім
-4.407726	дмитра
-5.31798	завадського
-4.8885636	даному
-5.0369368	змагалися
-2.5873046	ще
-3.3958404	два
-5.1932235	харківські
-5.31798	бадмінтоністи
-4.3317094	валерій
-5.31798	атращенков
-5.0369368	артем
-5.31798	почтарьов
-2.416152	але
-4.267037	обидва
-5.31798	зачохлили
-5.31798	ракетки
-3.0570085	після
-3.8421109	першого
-5.31798	раунду
-5.1932235	основної
-4.5545945	сітки
-4.778177	горовий
-4.499932	руслан
-4.499932	ген
-4.499932	воїна
-3.6456332	львів
-4.499932	кальварія
-1.6432755	і
-5.0369368	скрадаючись
-3.6677375	андрій
-4.095531	уважно
-5.31798	огледів
-4.4513865	територію
-5.0369368	зруйнованого
-5.31798	піонертабору
-3.6045382	здається
-2.724246	ми
-3.6753628	місці
-3.9293728	чоловіки
-5.0369368	зайшли
-3.5980518	боку
-4.0568247	дороги
-2.861864	щоб
-4.499932	переконатися
-1.9129921	що
-3.7600322	ній
-3.98844	нікого
-3.2410865	немає
-3.7417262	звісно
-4.690238	обстеження
-2.566458	було
-5.31798	згаяно
-2.9492888	час
-3.2643387	однак
-2.338063	це
-5.1932235	додавало
-4.778177	впевненості
-4.4513865	росіянин
-2.9213011	тут
-4.499932	залишив
-5.0369368	дяка
-5.31798	горбочку
-2.7582586	бо
-4.1162596	звідти
-4.8885636	табір
-4.6171417	непогано
-5.1932235	проглядався
-2.0806267	а
-3.2244294	сам
-3.8421109	пішов
-4.8885636	будівель
-5.1932235	найближчий
-4.3317094	корпус
-2.8654244	був
-4.778177	порожнім
-2.809591	того
-2.6927047	ж
-3.8653064	дерева
-2.475996	так
-5.0369368	проросли
-3.6456332	крізь
-2.9066436	нього
-4.8885636	сховатися
-4.004554	всередині
-3.8773859	неможливо
-5.0369368	роздивився
-3.6602437	навколо
-5.0369368	перебіг
-4.1851377	іншої
-4.5545945	будівлі
-2.9823132	була
-5.31798	їдальня
-2.3878708	він
-5.31798	протиснувся
-4.690238	всередину
-4.6171417	ретельно
-2.7427123	все
-5.1932235	оглянув
-5.1932235	порожньо
-4.038693	несподівано
-5.31798	лісову
-4.499932	тишу
-5.31798	розірвали
-4.138027	звуки
-4.690238	пострілів
-5.0369368	пролунала
-5.31798	автоматна
-4.6171417	черга
-3.0998008	потім
-3.5108495	одна
-4.5545945	кинувся
-4.2981706	вихід
-4.778177	бій
-5.31798	точився
-2.9870174	там
-2.867814	де
-5.31798	японський
-3.8309617	бог
-4.8885636	перевів
-4.5545945	автомат
-4.407726	режим
-5.31798	стріляння
-4.690238	чергою
-3.3149486	зараз
-5.31798	дяче
-2.4299204	я
-5.31798	допоможу
-4.0568247	намагаючись
-1.7519822	не
-5.0369368	викрити
-2.8937347	себе
-5.1932235	наблизився
-3.6045382	місця
-2.1959932	як
-5.31798	вирахував
-3.399901	мав
-4.778177	перебувати
-5.1932235	супротивник
-3.2643387	аж
-3.4382627	раптом
-3.9579031	поміж
-4.3680563	деревами
-5.1932235	промайнула
-4.160944	тінь
-3.433829	хтось
-5.1932235	рухався
-3.6831245	бік
-5.1932235	присів
-3.267335	біля
-5.31798	пожежного
-5.1932235	щита
-2.2247288	за
-5.0369368	величезним
-4.499932	червоним
-5.31798	ящиком
-2.4706817	для
-4.407726	піску
-5.1932235	спрямував
-3.046034	той
-3.9729033	звідки
-5.31798	долинала
-5.31798	безперервна
-4.778177	стрілянина
-3.6602437	серце
-4.267037	андрія
-5.31798	стукотіло
-3.9434037	швидше
-3.3684323	наче
-5.31798	підлаштовуючись
-2.8159242	під
-3.2984903	ось
-3.809487	побачив
-4.407726	постать
-5.0369368	бігла
-2.844488	лише
-4.778177	дивом
-5.0369368	натиснув
-5.1932235	гачок
-3.6385083	жінка
-3.060729	просто
-4.8885636	знайома
-2.4621234	із
-5.31798	снів
-5.31798	переплутати
-3.2271616	ці
-4.4513865	сині
-3.2326782	очі
-5.31798	сплутав
-3.110144	би
-3.0266078	ні
-3.7072783	якими
-3.8535538	іншими
-4.8885636	напружився
-5.1932235	пружина
-5.0369368	затис
-4.0568247	однією
-3.809487	рукою
-4.690238	звільнити
-4.3680563	іншу
-5.0369368	«один
-3.5215135	три
-5.1932235	рахував
-4.210759	подумки
-4.8885636	час»
-4.2981706	різко
-5.1932235	стрибнув
-4.5545945	уперед
-4.267037	жінку
-5.31798	затуляючи
-3.0478442	їй
-4.267037	рота
-4.6171417	обоє
-4.6171417	впали
-4.2981706	траву
-5.31798	згрупувався
-5.31798	відкотився
-4.8885636	вбік
-5.31798	притискав
-2.4953794	вона
-4.4513865	прийшла
-4.690238	переслідування
-3.6602437	більш
-3.7156374	чомусь
-5.1932235	стихла
-3.4611363	чоловік
-4.6171417	глянув
-3.3958404	яку
-5.31798	підімяв
-5.1932235	прикривав
-4.778177	нападу
-4.3680563	помилки
-3.0335717	бути
-4.138027	могло
-2.9917734	саме
-5.31798	снилася
-2.988597	йому
-3.7890246	стільки
-3.1039085	років
-4.690238	продовжував
-5.1932235	затуляти
-5.31798	врятованій
-3.8535538	очах
-3.7600322	жінки
-5.31798	застиг
-5.1932235	переляк
-2.5194128	її
-5.1932235	калатало
-3.5916607	здавалося
-2.8023171	навіть
-2.988597	через
-5.31798	бронежилет
-5.0369368	оцей
-5.1932235	несподіваний
-5.1932235	рятівник
-2.8399694	може
-4.3680563	почути
-5.31798	тссс
-4.3317094	прошепотів
-3.433829	руки
-5.1932235	прибрав
-3.170699	один
-5.31798	кивни
-3.8200917	головою
-5.0369368	перелякано
-4.690238	кивнула
-4.4513865	жах
-4.499932	потроху
-5.31798	згасав
-4.3317094	твоїх
-4.690238	полоні
-5.0369368	марічка
-5.31798	хитнула
-5.1932235	показуючи
-3.2410865	добре
-5.1932235	приберу
-3.6456332	руку
-2.96699	ти
-4.690238	будеш
-4.778177	кричати
-3.6314983	інакше
-5.31798	перестріляє
-3.0063617	нас
-5.0369368	горобців
-4.160944	зрозуміла
-4.0568247	обережно
-5.31798	ослабив
-3.7417262	дівчина
-5.31798	мовила
-3.8773859	жодного
-3.2795303	слова
-3.5730333	ані
-4.6171417	звуку
-5.31798	молодець
-4.778177	слухай
-2.9854436	мене
-2.9322808	якщо
-4.3680563	хочеш
-3.6753628	жити
-5.1932235	сиди
-4.3680563	показав
-5.1932235	ящика
-5.0369368	піду
-5.31798	розберуся
-3.0998008	тим
-4.6171417	хлопцем
-4.8885636	повернуся
-3.3390906	тебе
-3.9729033	мовчки
-5.1932235	випростав
-3.9579031	зпід
-3.652877	тіла
-4.267037	тихенько
-4.690238	підвівся
-5.0369368	панувала
-4.3680563	тиша
-4.4513865	подивився
-2.4019861	про
-4.5545945	всяк
-4.1162596	випадок
-3.3462424	раз
-4.778177	підніс
-4.8885636	пальця
-4.8885636	вуст
-4.004554	мовляв
-3.8421109	тихо
-4.8885636	ящик
-3.5916607	мить
-5.31798	розчинилася
-4.038693	лісі
-3.10185	цей
-3.7791438	далеко
-4.3317094	михайлов
-5.31798	прислуховувався
-4.8885636	лісових
-4.778177	звуків
-2.933673	більше
-4.8885636	стріляв
-3.3684323	тож
-4.3680563	вочевидь
-4.778177	мертвим
-4.778177	михайлова
-3.4382627	трохи
-5.0369368	нудило
-4.778177	куль
-5.31798	чиркнула
-3.7417262	голові
-5.31798	обмацав
-5.1932235	рану
-2.901434	можна
-4.210759	бувало
-2.1097462	й
-4.160944	гірше
-3.9293728	зрозумів
-4.075747	інша
-4.5545945	куля
-4.690238	потрапила
-4.1851377	ногу
-4.075747	вище
-4.3317094	коліна
-4.690238	штани
-5.1932235	набрякли
-4.210759	крові
-4.6171417	нога
-5.31798	згиналася
-3.5791543	отже
-5.0369368	кістки
-5.0369368	зачепило
-5.31798	одірвав
-5.1932235	низ
-5.31798	штанини
-5.31798	перетягнув
-4.499932	рани
-5.0369368	деякий
-4.3680563	допоможе
-5.1932235	стріляли
-4.5545945	кущами
-5.31798	чулися
-5.1932235	неголосні
-5.0369368	матюки
-5.31798	визирнув
-5.31798	чагарів
-4.8885636	кіяновська
-5.1932235	маріанна
-2.3377094	–
-4.075747	поет
-5.0369368	триголова
-4.237987	коза
-5.0369368	сучукрліту
-4.6171417	смиренно
-5.0369368	графоман
-3.6753628	отож
-4.8885636	ред
-4.3317094	пару
-3.6045382	слів
-3.2217143	кілька
-3.5324457	початку
-3.8309617	х
-4.4513865	українській
-4.499932	літературі
-4.4513865	відбувалося
-3.1564937	багато
-4.778177	цікавого
-5.31798	перспективних
-5.31798	дебютів
-3.7991352	сталося
-2.92402	тоді
-2.7364693	тому
-4.3317094	тлі
-4.5545945	поява
-5.1932235	кіяновської
-5.31798	справила
-4.6171417	особливе
-4.075747	враження
-4.237987	занадто
-5.0369368	незвичайний
-3.7417262	голос
-4.160944	справжній
-4.5545945	посвоєму
-5.1932235	нахабний
-5.0369368	подальші
-3.6677375	роки
-4.8885636	підтвердили
-4.8885636	здогад
-3.7328546	одним
-5.31798	першокласним
-4.8885636	поетом
-3.652877	стало
-3.1980133	хоча
-4.6171417	відома
-3.5610447	цим
-5.31798	найавторитетніших
-3.4382627	україні
-5.1932235	перекладачів
-5.0369368	польської
-3.5108495	особливо
-4.2981706	поезія
-5.0369368	тувім
-2.6151886	є
-5.31798	засновницею
-4.778177	премії
-4.8885636	царині
-4.2981706	дитячої
-4.1162596	літератури
-5.31798	«великий
-5.31798	їжак»
-4.160944	му
-4.8885636	видала
-4.021288	книгу
-5.1932235	оповідань
-5.31798	«стежка
-4.407726	вздовж
-5.31798	ріки»
-3.074008	неї
-3.5380168	довго
-4.267037	говорили
-5.0369368	міцна
-4.3680563	вкрай
-4.690238	цікава
-3.9729033	річ
-5.1932235	поговорив
-5.31798	маріанною
-4.6171417	напередодні
-3.7507827	нового
-3.0957317	року
-2.5885625	коли
-4.237987	одночасно
-4.3317094	вийшли
-5.31798	друком
-3.5669978	дві
-4.8885636	поетичні
-3.9434037	книги
-5.31798	маріанно
-4.778177	«до
-5.0369368	ер»
-3.98844	«»
-4.778177	ваші
-5.0369368	восьма
-5.31798	дев’ята
-4.690238	збірки
-3.9729033	часів
-4.8885636	«інкарнації»
-4.778177	змінилось
-4.5545945	принципово
-5.31798	«напевно
-4.778177	росту
-5.31798	стаюся
-5.31798	тихою»
-3.9579031	«я
-2.7373557	вже
-4.8885636	вмію
-4.690238	знаходити
-4.075747	шлях
-3.8773859	іще
-3.0335717	без
-5.31798	гордині»
-5.31798	точний
-4.8885636	сьогоднішній
-5.31798	зліпок
-4.2981706	поета
-4.8885636	починалося
-3.2643387	усе
-5.31798	одаліска
-3.7328546	тіло
-5.1932235	печаль
-3.6045382	душі
-3.652877	нема
-3.9434037	лиш
-4.4513865	повні
-5.31798	шалу»
-4.8885636	дякую
-3.4207935	такий
-3.7507827	спосіб
-5.31798	сформульоване
-3.9729033	запитання
-5.31798	«інкарнація»
-3.2110205	теж
-5.31798	збіркою
-5.31798	вибраних
-4.3680563	віршів
-4.210759	приблизно
-4.267037	тексти
-5.31798	ввійшли
-5.31798	писалися
-4.690238	дев’ять
-5.1932235	витворила
-3.024884	собі
-4.778177	своєрідну
-5.31798	«внутрішню
-5.31798	міфологію»
-5.31798	умовної
-5.31798	«магдалини»
-3.7417262	оскільки
-3.7991352	школи
-4.004554	хотіла
-5.0369368	наважилася
-4.210759	піти
-5.0369368	монастир
-4.4513865	важлива
-4.690238	особливість
-5.31798	упорядковувала
-4.5545945	юрко
-5.31798	бедрик
-5.31798	переконав
-5.0369368	видати
-4.210759	книжку
-5.0369368	пишучи
-5.1932235	кільканадцять
-3.8535538	ніч
-5.31798	сумнівалася
-5.31798	продукую
-5.31798	жорстоку
-5.31798	графоманію
-3.4382627	колись
-4.237987	назва
-5.31798	«товариство
-5.31798	усамітнених
-5.31798	графоманів»
-4.499932	виникла
-4.6171417	значною
-3.915781	мірою
-4.038693	всім
-3.7791438	постійно
-3.8653064	казала
-4.038693	перше
-5.31798	туги
-4.3680563	змінилося
-4.3317094	друге
-4.3317094	вірити
-3.447268	сама
-4.3680563	структура
-4.160944	віри
-3.1611774	між
-5.31798	«інкарнацією»
-5.31798	«міфотворенням»
-5.31798	відмолила
-5.0369368	важку
-5.31798	невиліковну
-4.8885636	хворобу
-5.0369368	абсолютним
-5.31798	метафізичним
-5.1932235	перетворенням
-4.6171417	новим
-4.499932	початком
-3.495329	світу
-5.1932235	«внутрішня
-5.31798	магдалина»
-3.652877	стала
-4.138027	менш
-5.31798	відчутною
-5.31798	оприсутнилася
-5.31798	єва»
-5.31798	принципове
-3.8200917	принаймні
-2.9933703	дуже
-4.407726	важливе
-4.778177	сума
-4.690238	сум
-4.4513865	поставила
-4.6171417	сумнів
-3.3049989	таке
-4.138027	поняття
-5.1932235	«поет
-5.1932235	кіяновська»
-3.6753628	насправді
-3.2554727	ніколи
-4.499932	писала
-4.1162596	«у
-5.31798	літпроцесі»
-3.5493782	само
-3.4039998	зовсім
-4.5545945	молода
-3.652877	очима
-5.1932235	повними
-5.31798	шалу
-5.31798	посміхається
-4.690238	скажіть
-4.267037	назви
-3.809487	нових
-5.0369368	збірок
-4.6171417	попередні
-5.31798	«книга
-5.31798	адама»
-5.31798	«міфотворення»
-5.31798	«звичайна
-5.1932235	мова»
-4.6171417	більшменш
-4.8885636	зрозумілі
-3.495329	от
-4.4513865	виглядають
-5.1932235	достоту
-5.31798	«речами
-5.1932235	собі»
-2.659575	вони
-5.0369368	означають
-4.3317094	першому
-5.31798	наближенні
-3.7694829	вам
-3.4564643	справді
-4.4513865	попередніх
-3.0496616	мені
-4.499932	вдається
-5.31798	озрозумілити
-2.7753496	їх
-4.3317094	посправжньому
-3.7991352	говорити
-4.075747	йдеться
-4.6171417	літочислення
-5.31798	«одночасний»
-3.7072783	цілком
-5.31798	міфологічний
-4.021288	якраз
-4.8885636	можливе
-4.6171417	розповідають
-4.267037	вірші
-3.0533195	має
-5.31798	багаторівневу
-5.31798	символіку
-5.31798	найважливішим
-4.038693	певно
-2.8525105	те
-4.407726	температура
-5.1932235	кипіння
-3.526945	води
-5.31798	кельвіном
-3.7694829	вода
-4.6171417	перетворюється
-3.7890246	стає
-5.1932235	невидимою
-5.31798	оку
-4.1851377	зникає
-4.8885636	метафора
-3.809487	смерті
-4.3317094	точніше
-3.7507827	смерть
-5.1932235	властиво
-5.31798	видимого
-5.31798	невидиме
-4.6171417	проста
-4.2981706	книжка
-3.4564643	така
-4.5545945	число
-3.6045382	взагалі
-4.8885636	рухається
-3.526945	куди
-4.4513865	загальний
-5.1932235	напрямок
-4.8885636	зрозумілий
-3.292078	одного
-5.31798	масова
-5.31798	цитована
-4.237987	прагне
-5.31798	декламаційності
-4.778177	прозорості
-4.690238	жадан
-5.0369368	бабкіна
-3.5916607	іншого
-5.31798	герметизується
-5.0369368	калитко
-5.1932235	шувалова
-2.587933	чи
-5.31798	конкуренція
-5.31798	«сильної»
-5.31798	«складної»
-4.267037	поезії
-3.8653064	вас
-5.0369368	очевидна
-3.175539	завжди
-3.4518418	всіх
-2.8377275	тільки
-5.0369368	обраних
-5.31798	замилюємо
-4.138027	око
-4.6171417	говоримо
-5.31798	«прозорість
-5.31798	декламаційність»
-5.1932235	жадана
-5.31798	«герметичність»
-5.31798	шувалової
-3.4611363	питання
-3.0096712	хто
-4.690238	читач
-4.778177	контекст
-3.8309617	більшість
-3.170699	людей
-4.4513865	здатні
-4.690238	відрізнити
-5.31798	«справжню
-5.31798	поезію»
-5.31798	«несправжньої»
-5.31798	«герметичну»
-5.31798	«негерметичної»
-5.31798	«прозорість»
-4.1851377	великою
-5.31798	заслуга
-5.1932235	контексту
-5.0369368	найкраща
-5.0369368	тяжіє
-5.31798	маскультури
-5.31798	соціокультурне
-4.499932	явище
-3.4902763	мало
-3.6677375	чим
-4.3680563	відрізняється
-5.31798	ліни
-4.6171417	костенко
-4.1851377	тими
-4.1162596	ким
-3.4803443	зокрема
-5.0369368	витворено
-5.31798	«прозорості»
-5.31798	«доступності»
-5.31798	«простоти»
-5.0369368	нітрохи
-5.31798	герметичний
-3.2554727	ніж
-4.5545945	неминуче
-5.31798	смислотворча
-3.809487	натомість
-5.0369368	званий
-5.31798	«новий
-5.31798	фольклор»
-5.31798	альбомна
-3.0798259	яка
-3.6602437	нині
-4.690238	пов’язана
-5.31798	соцмережами
-5.31798	тяжіють
-5.31798	жанрових
-4.160944	мовних
-5.31798	кліше
-4.690238	поділ
-4.4513865	проходить
-3.2764492	інших
-4.8885636	речах
-4.5545945	головні
-4.407726	типи
-4.778177	поетичного
-4.499932	письма
-4.3317094	бачу
-2.6536806	то
-4.8885636	очевидним
-4.407726	буквально
-4.407726	останнє
-4.4513865	десятиліття
-4.5545945	поетів
-5.0369368	умовно
-4.075747	кажучи
-4.6171417	рівнем
-5.1932235	толерантності
-5.31798	умовна
-4.8885636	сучасна
-5.0369368	європейська
-4.8885636	умовного
-5.31798	«типового»
-3.7241607	українського
-5.1932235	нерв
-4.778177	напруження
-5.31798	оголена
-5.1932235	рана
-5.31798	больова
-4.690238	точка
-4.499932	висока
-5.31798	толерантність
-4.4513865	себто
-5.1932235	виключення
-4.095531	парадигми
-5.31798	неодмінної
-5.1932235	альтернативи
-5.31798	«абоабо»
-4.095531	передбачає
-3.809487	інший
-4.160944	тип
-5.31798	рефлексії
-3.5791543	речі
-4.4513865	яскраво
-5.1932235	демонструє
-4.778177	рання
-4.237987	юрія
-5.1932235	андруховича
-5.31798	протиставлена
-4.690238	пізній
-5.1932235	пізня
-4.6171417	віктора
-5.31798	неборака
-5.0369368	бондаря
-5.1932235	прикладів
-4.2981706	десятки
-4.3680563	важливий
-4.5545945	виклик
-3.7417262	стоїть
-3.1382487	перед
-5.1932235	сучасною
-4.2981706	українською
-5.31798	поезією
-5.31798	літературою
-4.690238	цілому
-5.1932235	суттєве
-5.31798	пониження
-4.778177	емоційного
-5.31798	градусу
-5.31798	«переформулювання»
-4.2981706	емоцій
-4.778177	«під
-5.31798	європу»
-5.0369368	серйозна
-4.095531	проблема
-3.902602	процес
-5.31798	безповоротний
-4.690238	емоційно
-4.8885636	американська
-5.31798	вихолощені
-3.9729033	настільки
-4.4513865	основним
-5.1932235	прихистком
-5.31798	емоційності
-5.31798	чуттєвості
-4.8885636	проза
-3.3217103	усі
-5.31798	«сутінки»
-3.3760884	інші
-4.2981706	подібні
-3.915781	книжки
-4.038693	дають
-3.6677375	своїм
-5.31798	читачкам
-3.5215135	раніше
-4.499932	давала
-4.690238	основному
-5.31798	змушують
-5.31798	трепетати
-4.499932	щоки
-5.31798	рожевіти
-3.1427386	цьому
-4.095531	думаю
-5.0369368	секрет
-4.5545945	успіху
-4.690238	заході
-5.31798	«музею
-5.0369368	покинутих
-5.1932235	секретів»
-5.0369368	оксани
-4.8885636	забужко
-4.160944	роман
-4.8885636	принципі
-4.1851377	доброго
-5.0369368	світового
-3.9729033	рівня
-5.31798	розлитою
-4.021288	всьому
-4.5545945	тексті
-5.31798	чуттєвістю
-3.3426518	ця
-5.31798	підкуповує
-5.31798	масового
-4.3317094	читача
-5.31798	спраглого
-3.4902763	таких
-5.31798	кривда
-3.7694829	марина
-5.1932235	міфи
-5.31798	чорнобильську
-4.5545945	зону
-4.6171417	потребують
-5.31798	розвінчання
-2.9172542	україни
-3.2643387	часу
-4.8885636	спливло
-5.1932235	зборки
-5.1932235	переробку
-5.1932235	перероблювання
-5.1932235	переробки
-5.1932235	ємності
-5.31798	місткості
-5.1932235	вилучалися
-5.31798	вилучали
-4.3680563	частин
-3.9729033	рахунок
-4.407726	внаслідок
-2.7753496	які
-5.1932235	фінансуються
-5.31798	фінансують
-4.210759	стосовно
-3.7991352	дослідження
-4.210759	фактично
-3.9293728	кожному
-5.1932235	населеному
-4.499932	пункту
-5.0369368	кожний
-4.690238	населений
-4.5545945	пункт
-4.690238	незабаром
-5.31798	відзначатимемо
-4.8885636	сумні
-3.1878808	уже
-3.2952724	ті
-5.31798	роковини
-4.267037	моменту
-3.98844	однієї
-5.31798	найстрашніших
-5.31798	трагедій
-4.407726	людства
-4.5545945	аварії
-5.0369368	чорнобильській
-5.1932235	аес
-4.004554	утім
-5.31798	закриття
-4.237987	станції
-4.237987	зоні
-3.8653064	території
-4.690238	чаес
-4.690238	тривають
-3.3684323	роботи
-3.7072783	відбувається
-3.809487	одному
-5.1932235	найнебезпечніших
-5.0369368	найскладніших
-4.690238	об’єктів
-3.9293728	нашої
-3.8200917	країни
-4.2981706	нещодавно
-5.31798	інспектували
-4.499932	члени
-4.4513865	комітету
-4.4513865	верховної
-3.505614	ради
-3.8535538	питань
-4.8885636	екологічної
-3.98844	політики
-5.31798	природокористування
-4.8885636	ліквідації
-4.6171417	наслідків
-4.778177	чорнобильської
-4.690238	катастрофи
-3.3838816	ними
-5.1932235	об’єкті
-4.5545945	побував
-3.7417262	наш
-4.6171417	кореспондент
-4.2981706	пояснив
-4.1162596	директор
-4.499932	підприємства
-4.021288	ігор
-5.0369368	грамоткін
-4.237987	відсотків
-3.9293728	системи
-5.31798	виведено
-4.8885636	експлуатації
-2.9776592	також
-4.021288	повністю
-5.1932235	завершено
-4.8885636	будівництво
-4.778177	інфраструктури
-4.4513865	потрібна
-4.690238	зведення
-5.0369368	арки
-3.021457	тепер
-4.5545945	зусилля
-4.778177	спрямовано
-3.7791438	загалом
-5.0369368	розділити
-4.778177	напрями
-5.1932235	виведення
-4.038693	робота
-4.778177	міжнародними
-4.778177	проектами
-4.138027	перетворення
-4.4513865	об’єкта
-5.31798	«укриття»
-5.0369368	безпечну
-4.004554	систему
-3.3958404	тобто
-5.31798	накриття
-4.499932	новою
-4.8885636	аркою
-3.6753628	перший
-4.499932	напрям
-4.6171417	активну
-3.98844	діяльність
-5.1932235	промисловому
-5.1932235	майданчику
-3.2826333	сьогодні
-5.1932235	реакторів
-5.31798	басейнів
-5.0369368	витримки
-5.31798	вилучено
-4.778177	паливо
-5.31798	перемістили
-5.0369368	тимчасове
-4.138027	збереження
-5.1932235	сховища
-5.0369368	відпрацьованого
-4.8885636	ядерного
-4.690238	палива
-5.31798	пошкоджені
-5.31798	паливновентиляційні
-4.1851377	перебувають
-5.31798	басейнах
-4.095531	другого
-5.31798	блоків
-3.3646543	мають
-5.31798	вилучені
-4.004554	го
-4.8885636	закрити
-5.31798	законсервувати
-2.994973	всі
-5.31798	реактори
-3.7791438	спочатку
-5.0369368	планувалося
-4.267037	провести
-4.237987	забути
-3.3320549	цю
-3.249661	проте
-4.778177	враховуючи
-4.407726	потенціал
-4.8885636	персоналу
-4.8885636	чинники
-5.31798	інтеграцію
-5.0369368	майданчика
-5.31798	промисловий
-4.6171417	комплекс
-4.4513865	приміром
-4.8885636	організувати
-4.3680563	зберігання
-4.778177	радіоактивних
-4.778177	відходів
-3.5380168	тощо
-4.237987	частково
-4.690238	реалізується
-4.210759	рамках
-5.31798	згаданого
-4.6171417	напряму
-5.31798	«міжнародні
-5.31798	проекти»
-4.210759	наразі
-4.3317094	спільного
-4.778177	фінансування
-4.1851377	заходу
-5.1932235	реалізують
-3.7417262	понад
-4.138027	проектів
-4.6171417	розібратися
-4.1851377	усіма
-5.1932235	горами
-5.31798	озерами
-4.267037	матеріалів
-4.8885636	збудовано
-5.31798	завод
-5.31798	рідких
-4.8885636	твердих
-5.31798	рідкі
-5.1932235	відходи
-5.31798	запаюють
-5.1932235	опускають
-5.31798	залізобетонні
-5.31798	контейнери
-4.778177	зберігати
-5.31798	вийняте
-5.1932235	відпрацьоване
-5.0369368	звели
-3.98844	інше
-5.31798	сховище
-4.5545945	окремо
-3.8309617	варто
-4.160944	згадати
-5.31798	централізованого
-3.5730333	досі
-3.8309617	великі
-3.7417262	гроші
-5.1932235	вивозили
-5.1932235	росію
-4.690238	цінні
-5.0369368	елементи
-4.8885636	решту
-4.0568247	вигляді
-5.31798	повертали
-3.5108495	ну
-4.3317094	третій
-5.31798	згадувалося
-3.7890246	новий
-5.0369368	безпечний
-5.31798	конфайнмент
-2.787129	або
-4.8885636	арка
-5.31798	монтують
-5.0369368	окремому
-4.4513865	завершення
-5.1932235	конструкцію
-5.31798	насунути
-4.499932	старе
-5.1932235	збудоване
-4.778177	укриття
-5.0369368	кипить
-4.160944	моєї
-5.0369368	поїздки
-4.8885636	чорнобиля
-4.2981706	керівництво
-5.31798	розмірковувало
-5.1932235	демонтувати
-5.31798	вентиляційну
-5.0369368	трубу
-3.2057707	над
-5.31798	пошкодженим
-5.31798	реактором
-4.690238	високу
-5.31798	радіаційність
-5.1932235	підступитися
-4.499932	складно
-4.778177	учені
-4.5545945	спеціалісти
-3.360909	таки
-4.138027	знайшли
-5.31798	демонтовано
-4.3680563	розповів
-3.9434037	вдалося
-5.31798	розпиляти
-4.138027	сім
-4.4513865	черзі
-5.31798	знято
-4.690238	словах
-3.5108495	каже
-3.98844	довелося
-5.0369368	докласти
-5.31798	надзусиль
-5.31798	розрахували
-5.31798	дрібниць
-5.31798	демонтажу
-5.31798	шостого
-5.31798	фрагмента
-5.31798	кран
-4.138027	зміг
-4.5545945	підняти
-5.0369368	конструкція
-5.1932235	зависла
-4.0568247	повітрі
-5.31798	розкріплювати
-3.7791438	назад
-5.31798	підключати
-5.31798	інженерів
-3.611123	робити
-3.8773859	нові
-5.0369368	розрахунки
-4.8885636	об’єкт
-5.31798	радіаційно
-5.31798	небезпечний
-4.237987	добу
-5.31798	мізкували
-3.699077	рішення
-5.31798	удалося
-5.0369368	запобігти
-5.31798	опроміненню
-4.3680563	«за
-3.7328546	весь
-4.1851377	період
-4.2981706	отримали
-5.31798	ліквідатора»
-5.1932235	гордощів
-4.5545945	повідомив
-4.6171417	зазначає
-3.9729033	останні
-4.499932	міжнародних
-5.31798	донорів
-4.8885636	претензій
-3.3355584	можуть
-5.0369368	виникнути
-5.31798	зазначалося
-5.31798	нараді
-5.1932235	серйозною
-5.31798	перепоною
-4.1162596	отримання
-4.690238	міжнародної
-5.31798	донорської
-4.210759	допомоги
-4.4513865	внесення
-4.0568247	змін
-4.4513865	податкового
-4.5545945	законодавства
-4.8885636	ідеться
-4.778177	норму
-5.1932235	скасовує
-4.778177	звільнення
-5.31798	податкування
-4.8885636	прибутку
-4.6171417	підприємств
-5.31798	отриманого
-5.31798	технічної
-5.1932235	надається
-5.31798	чорнобильським
-5.31798	фондам
-5.1932235	позбавляє
-5.0369368	іноземні
-4.004554	організації
-4.407726	беруть
-3.7890246	участь
-4.6171417	виконанні
-5.1932235	чорнобильських
-4.160944	їхнього
-3.915781	права
-4.4513865	вести
-4.6171417	реєстрації
-5.0369368	платників
-4.3680563	податків
-4.4513865	створює
-5.31798	неприйнятний
-4.6171417	ризик
-3.98844	робить
-5.1932235	незахищеними
-5.31798	підрядників
-5.1932235	фондів
-5.31798	квітень
-5.31798	намічена
-5.0369368	чергова
-5.31798	донорська
-5.31798	конференція
-4.690238	розв’язання
-3.475462	цієї
-3.7991352	проблеми
-3.2952724	чому
-4.8885636	залежатиме
-4.138027	результат
-5.31798	невирішеним
-3.915781	залишається
-4.8885636	відшкодування
-5.1932235	пенсійному
-4.1162596	фонду
-4.237987	витрат
-5.1932235	виплату
-4.690238	пенсій
-5.31798	призначених
-5.0369368	пільгових
-4.0568247	умовах
-5.1932235	підпадають
-5.31798	категорію
-4.8885636	пенсію
-4.778177	звичайних
-3.7600322	наших
-4.0568247	громадян
-4.778177	пенсійний
-4.778177	фонд
-5.1932235	періодично
-4.690238	звертається
-4.3680563	суду
-3.5161486	поки
-5.31798	відтерміновувати
-5.1932235	борги
-5.1932235	накопичуються
-5.31798	шахтарями
-3.2110205	свого
-5.31798	врегульовано
-4.690238	державному
-3.8309617	рівні
-4.8885636	підкреслив
-3.7600322	голова
-5.1932235	профільного
-5.31798	парламентського
-3.8309617	микола
-5.1932235	томенко
-2.9350696	цього
-5.1932235	очікують
-5.31798	чорнобильців
-4.690238	наголосив
-4.160944	повинні
-5.31798	сконцентруватися
-4.5545945	новій
-4.038693	стратегії
-4.3317094	зони
-4.3680563	відчуження
-3.500441	давно
-4.2981706	часі
-3.7072783	створення
-5.31798	біосферного
-5.1932235	заповідника
-4.5545945	успішно
-4.4513865	діє
-4.690238	сусідній
-5.1932235	білорусі
-4.6171417	пов’язано
-5.1932235	енергетикою
-5.0369368	віднести
-4.210759	сфери
-4.0568247	міністерства
-4.160944	ситуація
-5.1932235	міністерств
-5.1932235	узгодити
-3.4165337	собою
-4.095531	дії
-3.3017325	свою
-4.407726	чергу
-5.31798	гальмує
-4.237987	прийняття
-4.1851377	рішень
-5.31798	наголошувалося
-4.267037	необхідності
-5.1932235	перегляду
-3.2326782	адже
-4.5545945	залишилася
-4.778177	радянських
-5.31798	неефективна
-3.4611363	одне
-3.5853624	слово
-4.075747	потрібні
-4.5545945	реформи
-4.8885636	здійснити
-4.4513865	залучення
-4.2981706	фахівців
-4.3680563	наукової
-4.2981706	спільноти
-3.2857587	щодо
-4.8885636	останньої
-4.3680563	зазначив
-4.407726	головний
-5.0369368	спеціаліст
-4.075747	відділу
-5.31798	техногенної
-3.9729033	безпеки
-4.1162596	інституту
-5.1932235	стратегічних
-4.160944	досліджень
-4.160944	олег
-5.31798	насвіт
-4.407726	постає
-5.1932235	нагальна
-4.210759	потреба
-5.31798	переформатуванні
-3.0318203	б
-4.0568247	частину
-4.237987	використовувати
-5.31798	званій
-5.1932235	кілометровій
-4.267037	абсолютно
-4.8885636	чисті
-5.1932235	місцини
-3.3183162	такі
-3.9729033	доведеться
-3.0778778	щось
-5.31798	учений
-4.138027	одній
-4.6171417	серйозних
-4.004554	проблем
-5.0369368	януковича
-3.7072783	допомогою
-4.690238	сбу
-5.31798	витіснено
-4.075747	наукових
-4.8885636	учених
-4.778177	японії
-4.3680563	сша
-4.778177	спільні
-5.0369368	напрацювання
-3.7417262	могли
-3.915781	дати
-3.98844	змогу
-4.095531	набагато
-4.778177	ширше
-4.1162596	виявляється
-5.31798	дозволи
-4.8885636	наукову
-4.778177	співпрацю
-4.6171417	надавати
-5.31798	кабмін
-4.8885636	механізми
-5.31798	відпрацьовано
-5.0369368	директорів
-4.4513865	установ
-4.021288	дедалі
-4.095531	частіше
-5.31798	«запрошували»
-5.1932235	попереджали
-5.1932235	передавати
-4.407726	наукові
-5.31798	іноземцям
-4.8885636	унаслідок
-5.31798	змушенні
-3.0998008	були
-4.690238	виїхати
-5.1932235	вчений
-4.1851377	мета
-5.0369368	замкнути
-4.3317094	державі
-5.31798	генеральний
-5.1932235	науководослідного
-5.0369368	радіаційного
-4.138027	захисту
-5.0369368	ілля
-5.1932235	ліхтарьов
-4.690238	висловив
-3.7072783	думку
-5.31798	протипоказань
-4.8885636	ведення
-5.0369368	господарської
-3.7328546	діяльності
-3.0424368	треба
-5.1932235	підходити
-5.31798	виважено
-4.778177	сповна
-4.8885636	врахувати
-4.6171417	величезна
-5.1932235	база
-4.1851377	даних
-3.8773859	маємо
-5.31798	аронович
-3.7241607	наші
-4.5545945	свідчать
-3.6910274	багатьох
-4.267037	місцях
-4.499932	визначено
-5.31798	забруднена
-4.690238	територія
-4.8885636	радіації
-4.038693	навряд
-5.0369368	можлива
-4.160944	якась
-5.31798	кілометрову
-5.31798	приймалось
-4.8885636	мовити
-5.31798	циркульно
-4.1851377	зрозуміло
-3.6753628	водночас
-3.8309617	пан
-4.1162596	намагався
-4.778177	донести
-4.778177	колишніх
-5.1932235	керманичів
-3.3760884	їм
-5.1932235	вигідно
-5.31798	залишати
-4.690238	зміниться
-4.3317094	невідомо
-4.038693	чимало
-3.98844	залежить
-3.7991352	наше
-4.1851377	майбутнє
-4.407726	шевчук
-4.6171417	театр
-4.8885636	прози
-4.3680563	фрагменти
-4.5545945	сувою
-4.5545945	мойр
-4.4513865	либідь
-5.1932235	всевидячого
-5.0369368	пропоную
-4.5545945	залишити
-5.0369368	маруська
-3.915781	пішла
-5.31798	розпочала
-5.1932235	фінального
-5.1932235	танця
-5.31798	танцяреквіуму
-5.1932235	повільним
-5.31798	розбитим
-5.0369368	кроком
-4.690238	чорними
-5.31798	розширеними
-5.31798	примерклими
-3.5436604	можливо
-5.31798	мерклого
-4.210759	погляду
-4.0568247	вечора
-5.31798	згусли
-4.499932	сутінки
-5.0369368	почалися
-3.6314983	відтак
-4.778177	пробувала
-5.1932235	потекли
-5.31798	запульсували
-5.31798	пониклої
-4.8885636	темної
-4.3317094	постаті
-4.690238	темним
-4.499932	обличчям
-4.778177	слізьми
-5.31798	зашерхлими
-5.1932235	вустами
-4.8885636	вчинила
-5.1932235	туга
-5.31798	навпереміш
-5.0369368	спокоєм
-4.407726	жоден
-5.1932235	м’яз
-5.0369368	здригався
-4.407726	обличчі
-4.160944	йшла
-3.485282	людина
-5.31798	робот
-5.0369368	механічно
-5.31798	переступаючи
-4.038693	ногами
-4.690238	помалу
-5.31798	руйнувався
-5.31798	розсипався
-3.3958404	світ
-5.1932235	поринав
-5.1932235	смеркання
-3.442742	яке
-5.31798	з’їдало
-4.0568247	дорога
-3.4518418	нею
-5.1932235	стелилася
-5.31798	висвітлена
-5.31798	поморочена
-5.0369368	порожня
-5.31798	витяглась
-4.8885636	глибину
-4.407726	неначе
-4.2981706	рука
-4.138027	котра
-5.31798	вимацує
-4.6171417	пальцями
-5.0369368	проміння
-5.0369368	пітьму
-4.138027	глибоко
-5.31798	поринала
-5.0369368	жінці
-4.6171417	жалю
-4.690238	обурення
-4.407726	сліз
-5.0369368	усмішки
-5.1932235	печалі
-4.210759	радості
-4.778177	холодні
-5.31798	драглисті
-3.8653064	кінця
-5.31798	заковтували
-3.9729033	дорогу
-4.6171417	довкілля
-3.7328546	найбільше
-3.8535538	небо
-4.5545945	жінкою
-4.138027	місяця
-4.8885636	зір
-4.499932	хмар
-4.3680563	чорна
-5.1932235	порожнеча
-4.8885636	шукала
-4.095531	небі
-4.5545945	ока
-5.31798	управленого
-5.0369368	трикутника
-3.6753628	знала
-5.31798	зріло
-4.160944	ба
-4.407726	пильно
-5.31798	стежило
-5.31798	пропускаючи
-5.31798	поруху
-5.31798	замерзлій
-5.0369368	дивуючись
-5.31798	дивувалось
-3.3355584	воно
-5.31798	знало
-4.095531	власну
-5.31798	непізнанність
-5.0369368	починало
-5.1932235	здогадуватися
-3.8653064	існує
-5.31798	невпізнанність
-5.31798	створило
-3.4123154	землі
-3.4518418	світі
-5.31798	пізнало
-3.9434037	жаль
-4.499932	відчай
-5.31798	подобав
-5.31798	пустило
-4.6171417	руїни
-3.7241607	живе
-4.5545945	створіння
-5.31798	болісно
-5.31798	заплакало
-5.31798	безпомічно
-4.1851377	темряві
-5.31798	запищало
-5.0369368	спинилася
-4.778177	почувши
-5.31798	немічний
-5.31798	писк
-5.0369368	прислухалася
-5.1932235	тривожно
-5.1932235	причулося
-4.138027	почала
-5.31798	вимацувати
-5.31798	бур’яні
-5.0369368	витягла
-5.1932235	тремтливе
-5.31798	вошиве
-5.31798	змерзле
-4.8885636	мале
-5.0369368	цуценя
-4.8885636	пригорнула
-4.407726	грудей
-5.0369368	поцілувала
-5.31798	вогкого
-5.31798	писочка
-3.2889068	далі
-4.778177	сторожко
-5.31798	намацуючи
-5.1932235	густій
-3.3017325	майже
-5.31798	вмерлу
-5.0369368	ледьледь
-5.31798	прозначену
-5.31798	знась
-4.210759	ірина
-5.0369368	обрав
-3.9434037	україну
-3.7241607	мабуть
-3.902602	львова
-4.5545945	українка
-5.31798	найвідоміший
-4.138027	мандрівник
-5.31798	британський
-4.8885636	фред
-5.1932235	фінн
-5.31798	рекордсмен
-5.1932235	рекордів
-5.31798	гіннеса
-4.5545945	кількістю
-5.31798	польотів
-5.31798	літаками
-3.3251312	серед
-4.1851377	пасажирів
-4.690238	приїхав
-5.31798	четверта
-4.690238	подорож
-3.5669978	міста
-4.095531	лева
-3.9729033	вперше
-5.1932235	завітав
-3.2952724	разом
-5.31798	знімальною
-4.690238	групою
-4.4513865	каналу
-4.1162596	відтоді
-4.407726	встиг
-5.31798	полюбити
-4.690238	одружився
-5.1932235	українкою
-4.778177	домівки
-4.6171417	рідному
-5.0369368	лондоні
-5.31798	комсомольську
-4.690238	полтавської
-3.6677375	області
-4.5545945	сім’я
-4.778177	вважається
-5.31798	експертом
-4.8885636	подорожей
-3.485282	своє
-2.9350696	життя
-4.3317094	провів
-3.9579031	тисяч
-4.778177	ночей
-5.1932235	готельних
-5.31798	номерах
-4.8885636	візиту
-3.5161486	місце
-3.5853624	житті
-4.8885636	займають
-4.6171417	подорожі
-3.7156374	україна
-3.9434037	вирішив
-5.31798	оселитись
-4.138027	нашій
-4.210759	країні
-5.0369368	подорожувати
-3.7991352	почав
-3.9293728	перша
-3.652877	моя
-5.31798	лондона
-5.0369368	ньюйорка
-5.31798	прямих
-5.0369368	рейсів
-4.8885636	летів
-4.075747	годин
-4.407726	трьома
-5.31798	пересадками
-4.5545945	подолати
-4.138027	години
-5.1932235	подорожував
-5.31798	наплічником
-5.31798	любитель
-5.0369368	цивілізованих
-4.237987	міст
-4.778177	обійшов
-4.778177	пішки
-5.0369368	відвідав
-4.237987	країн
-3.6677375	бачив
-4.3680563	різного
-4.3317094	тричі
-5.31798	попадав
-5.31798	надзвичайні
-3.7507827	ситуації
-4.4513865	літак
-5.31798	викрадали
-5.0369368	уявляю
-3.6385083	знаю
-3.3217103	міг
-5.0369368	заповнити
-4.4513865	живу
-4.004554	дружина
-4.1162596	донька
-4.8885636	почуваюся
-5.1932235	українцем
-5.31798	чудесна
-3.902602	українців
-5.1932235	усвідомлюють
-5.31798	соромляться
-3.5853624	своєї
-5.1932235	неправильно
-5.0369368	українцям
-5.1932235	впевненими
-4.690238	сміливо
-5.31798	заявляти
-3.6602437	іноді
-4.690238	британії
-5.0369368	запитують
-4.4513865	«як
-5.31798	росії»
-5.31798	обурює
-3.7694829	росії
-3.7241607	хотів
-3.6385083	якось
-4.690238	євро
-5.0369368	конференції
-4.6171417	харкові
-4.690238	представник
-3.7241607	замість
-5.31798	обговорювати
-5.1932235	футболу
-4.3317094	розповідати
-4.038693	любить
-5.31798	східну
-4.778177	європу
-4.0568247	погано
-5.31798	повії
-5.31798	голландії
-3.8773859	сюди
-5.1932235	приїздив
-5.1932235	обурило
-5.0369368	судити
-4.1162596	країну
-5.31798	іноземець
-4.038693	намагається
-4.778177	захищати
-4.160944	говорять
-5.0369368	неправду
-4.778177	здобутки
-5.0369368	поразки
-5.1932235	сім’ю
-4.778177	найважливіше
-5.0369368	одружений
-3.7890246	великий
-5.31798	поціновувач
-4.021288	жінок
-4.2981706	впевнено
-3.8200917	можу
-3.6677375	сказати
-5.1932235	українки
-4.778177	найкращі
-4.8885636	найбільша
-4.267037	зірка
-4.0568247	мого
-4.690238	гадаю
-4.5545945	хороший
-3.6910274	батько
-5.31798	довіряємо
-5.1932235	збереглися
-5.0369368	сімейні
-4.4513865	цінності
-4.5545945	близькі
-3.8421109	батьки
-3.5916607	діти
-4.499932	бабусі
-5.31798	дідусями
-5.31798	душевно
-3.98844	наша
-4.2981706	бабця
-3.5791543	поруч
-4.2981706	маленька
-5.1932235	тендітна
-5.1932235	турбується
-5.0369368	дружини
-5.0369368	прийняла
-3.3183162	української
-3.2326782	мови
-4.8885636	складна
-3.902602	вивчення
-3.7417262	хоче
-4.778177	вчити
-4.075747	розумів
-4.210759	спиною
-4.3317094	сміється
-4.1851377	основних
-5.31798	«будьмо»
-5.31798	«дякую»
-5.31798	«бабушка»
-4.0568247	війну
-5.0369368	донбасі
-3.3535137	нам
-5.0369368	перемовини
-5.31798	терористами
-5.1932235	домовлятись
-4.6171417	чужими
-4.0568247	людьми
-4.237987	прийшли
-4.160944	роблять
-4.690238	пережила
-3.5610447	надто
-3.4250953	часто
-5.31798	сторонні
-3.2244294	люди
-4.407726	намагалися
-5.31798	переписати
-4.004554	історію
-3.98844	змінити
-4.6171417	кордони
-4.4513865	дозволити
-5.31798	втручався
-5.0369368	вірю
-5.31798	виграємо
-5.31798	підтримую
-4.138027	українську
-4.8885636	армію
-5.31798	збираю
-3.9434037	кошти
-4.138027	допомогти
-5.0369368	гостинність
-4.138027	українці
-5.31798	недооцінюють
-3.4564643	свій
-5.0369368	сервіс
-3.98844	києві
-5.1932235	побудували
-5.31798	мережевих
-5.0369368	готелів
-4.038693	знаєш
-2.9870174	них
-4.5545945	очікувати
-4.267037	особисто
-4.021288	люблю
-4.267037	маленькі
-4.8885636	готелі
-5.31798	персоніфікований
-4.0568247	врешті
-3.7600322	українських
-5.31798	привітні
-4.6171417	оця
-5.0369368	хороша
-5.0369368	їжа
-5.31798	компенсують
-3.809487	якісь
-5.0369368	недоліки
-4.138027	єдиний
-5.1932235	негативний
-5.1932235	відгук
-5.31798	залишав
-5.31798	стосувався
-4.8885636	готелю
-5.1932235	«бориспіль»
-5.1932235	жахливо
-4.778177	номері
-4.3317094	впала
-5.31798	шафа
-4.021288	доволі
-5.1932235	брудно
-5.1932235	готель
-4.1851377	аеропорту
-5.1932235	відкривають
-5.0369368	псує
-4.138027	їхнє
-3.6045382	разу
-4.778177	другом
-5.31798	річардом
-5.31798	чикаго
-4.2981706	більшості
-4.095531	друзів
-4.4513865	справжнім
-5.1932235	відкриттям
-5.0369368	американець
-5.0369368	річард
-5.31798	охарактеризував
-4.138027	словом
-5.31798	«класно»
-4.2981706	додав
-5.31798	найскладніші
-3.8421109	часи
-3.526945	потрібно
-4.690238	показувати
-4.6171417	відкриті
-3.9434037	бізнесу
-5.31798	налагодиться
-4.6171417	дашвар
-4.6171417	люко
-4.778177	биті
-4.778177	макс
-3.6677375	харків
-3.7600322	клуб
-3.7694829	сімейного
-3.915781	дозвілля
-4.778177	третього
-4.5545945	січня
-4.138027	ганна
-4.267037	іванівна
-5.31798	перехрестилася
-4.499932	поїхала
-5.1932235	суперечка
-5.1932235	охороною
-5.31798	офісного
-3.9434037	центру
-4.5545945	забрала
-4.499932	небагато
-4.499932	немало
-5.0369368	нервів
-5.1932235	секретарка
-5.31798	наполягла
-3.2110205	аби
-5.31798	охоронець
-5.31798	шефового
-4.3680563	кабінету
-4.0568247	власні
-5.31798	пересвідчився
-4.1851377	бере
-4.690238	ключі
-5.1932235	скачко
-5.1932235	виносить
-4.4513865	список
-5.31798	запрошених
-4.8885636	бал
-4.6171417	журналістів
-4.038693	п’ять
-3.7328546	хвилин
-4.690238	ішла
-3.7507827	геть
-3.0113354	зі
-5.31798	списком
-5.0369368	преси
-5.0369368	переглядала
-5.0369368	ходу
-4.0568247	жодної
-5.31798	слушної
-3.7328546	думки
-5.1932235	подальших
-4.8885636	пошуків
-5.31798	перевіреним
-3.7600322	шляхом
-3.8653064	ночі
-4.778177	набирала
-5.31798	“пошуку”
-4.6171417	прізвища
-4.3317094	списку
-4.2981706	інтернет
-5.31798	відригував
-5.31798	хибною
-4.5545945	інформацією
-5.31798	десятками
-5.0369368	фотографій
-5.31798	жінкирепортери
-5.31798	чоловікиоглядачі
-5.31798	панянкипочатківці
-5.31798	звучними
-5.31798	псевдо…
-4.3680563	хлопця
-5.31798	папараці
-3.3426518	часом
-4.690238	запрошення
-5.1932235	пробрався
-5.31798	забаву
-5.31798	компроматом
-5.1932235	вибрала
-3.809487	таку
-3.902602	пані
-5.31798	світлану
-5.31798	діброву
-4.3317094	фото
-5.1932235	жіночка
-4.407726	середнього
-4.021288	віку
-4.8885636	виглядала
-5.1932235	привітною
-5.1932235	розумною
-5.31798	непихатою
-4.210759	працювала
-5.1932235	редактором
-4.138027	соціальних
-5.31798	інтернетгазети
-5.1932235	написала
-5.0369368	стримано
-5.0369368	прихованої
-5.31798	ворожнечі
-4.8885636	четвертого
-4.237987	зранку
-4.8885636	зателефонувала
-5.1932235	журналістці
-5.0369368	плела
-5.1932235	дивувалася
-5.31798	максиму
-5.31798	володимировичу
-5.31798	сподобалися
-5.0369368	діброва
-5.31798	супроводила
-4.4513865	матеріал
-5.0369368	придбати
-4.5545945	архіву
-5.31798	неопубліковані
-5.1932235	журналістка
-4.499932	виявилася
-5.31798	приязною
-5.31798	світлинах
-4.407726	інтернеті
-5.31798	погодилася
-5.1932235	скинути
-4.690238	балу
-4.8885636	флешку
-4.8885636	диск
-3.5791543	щоби
-4.1851377	наступного
-3.5161486	дня
-5.1932235	зустрітися
-5.1932235	ганною
-5.1932235	іванівною
-3.4518418	десь
-4.021288	центрі
-4.2981706	передати
-4.8885636	чудовий
-4.8885636	привід
-5.0369368	розпитати
-5.31798	жіночку
-4.3680563	колег
-4.8885636	видань
-5.31798	тирлувалися
-4.8885636	невідомого
-5.31798	бейджем
-4.8885636	«преса»
-5.31798	розтягнутому
-5.0369368	светрі
-5.31798	прогуляємося
-4.690238	доро
-5.1932235	звала
-4.499932	дівча
-4.2981706	зустріч
-5.0369368	збиралася
-5.1932235	хвилинку
-5.31798	поговорю
-4.778177	підемо
-4.6171417	святковий
-4.3680563	майдан
-5.1932235	роздивлятися
-3.4564643	мама
-4.8885636	славка
-5.31798	ялинки
-5.1932235	привезти
-4.095531	дора
-4.778177	хутко
-5.1932235	зібралася
-3.9579031	щастя
-5.1932235	величезне
-4.8885636	незнайоме
-3.5730333	місто
-3.6385083	ньому
-4.690238	дори
-3.3017325	ніхто
-5.31798	привітається
-4.407726	самій
-4.3317094	іти
-5.31798	змилувалося
-5.1932235	подарувало
-4.407726	теплі
-4.8885636	ганни
-5.0369368	іванівни
-5.1932235	хитра
-4.778177	ховала
-5.31798	неприступною
-5.31798	маскою
-5.31798	каштелубранку
-5.31798	січневий
-3.3838816	день
-5.31798	сніжить
-4.267037	вогні
-5.31798	засяяти
-5.31798	хрещатику
-5.1932235	люд
-5.31798	несумний
-4.690238	кіоску
-4.778177	розі
-5.31798	бессарабки
-5.31798	похмура
-4.499932	тоскно
-4.075747	дивиться
-4.4513865	скло
-5.0369368	віконця
-5.31798	святкове
-5.31798	буйство
-5.31798	бранка
-4.095531	якогось
-4.8885636	страшного
-5.1932235	друкованого
-5.31798	чудовиська
-5.31798	каштелу
-4.407726	дору
-4.8885636	тягне
-4.8885636	торкається
-5.31798	зачекаю
-4.3317094	показує
-5.31798	підземний
-5.1932235	перехід
-4.160944	неподалік
-4.499932	переходу
-5.0369368	фотографіями
-5.0369368	заберу
-5.31798	перекинуся
-4.4513865	тількино
-4.5545945	підходить
-5.0369368	виринає
-5.0369368	весела
-5.1932235	юрба
-4.3680563	хлопців
-4.160944	дівчат
-5.0369368	регочуть
-5.1932235	штовхаються
-4.160944	високий
-5.0369368	патлатий
-5.31798	яскравій
-5.31798	лижній
-5.31798	куртці
-4.778177	довгим
-5.31798	смугастим
-4.778177	шарфом
-4.210759	шиї
-5.0369368	хапає
-5.0369368	стійте
-5.1932235	віддам
-5.31798	гайда…
-3.7791438	відразу
-5.0369368	впізнає
-4.8885636	незнайомця
-5.1932235	озирається
-3.2554727	ви
-5.31798	впадете
-4.5545945	несподіванки
-4.6171417	дихає
-5.31798	дратується
-5.1932235	погана
-5.31798	сваха
-4.5545945	тої
-4.138027	миті
-5.31798	дзвонить
-4.8885636	мобільний
-5.31798	перепрошує
-4.407726	змогла
-5.0369368	вирватися
-3.8535538	сина
-4.6171417	попросила
-3.8653064	данко
-5.0369368	обов’язковий
-4.1851377	хвилини
-4.407726	хвилину
-5.0369368	світлини
-5.1932235	фотографував
-5.1932235	він…
-3.7991352	хлопець
-4.778177	роззирається
-4.210759	перш
-4.690238	звертає
-3.7694829	увагу
-5.0369368	ганну
-5.31798	іванівну
-5.1932235	помічає
-5.1932235	застигає
-5.31798	спішить
-5.31798	добридень
-4.3680563	ваша
-5.1932235	відводить
-5.31798	кладе
-4.690238	долоню
-5.31798	біситься
-5.31798	данкова
-4.6171417	компанія
-4.778177	йдемо
-5.31798	відмахується
-5.31798	зачекайте
-4.210759	іде
-5.31798	операційна
-5.1932235	медсестра
-5.31798	двадцятирічним
-5.31798	стажем
-4.0568247	вигляд
-3.8653064	ніяк
-3.7600322	знайти
-4.8885636	сумці
-5.31798	дорогоцінній
-5.31798	флешці
-4.690238	зашкодити
-5.31798	нещасній
-4.690238	доньці
-4.5545945	далеких
-5.31798	мандрах
-5.31798	допоможе…
-5.31798	зиркає
-5.31798	притихлих
-5.31798	данкових
-5.1932235	спостерігають
-5.31798	патлатим
-4.778177	цікавістю
-5.1932235	дожене
-5.0369368	вирішують
-4.690238	кричить
-5.31798	хриплим
-5.31798	півником
-5.0369368	дане
-3.9579031	пішли
-5.31798	“і
-3.9434037	кудись
-5.31798	подітися”
-5.0369368	прикрістю
-4.407726	чула
-5.31798	їйбогу
-5.31798	розірвало
-5.1932235	бухбухбух
-5.31798	переляканий
-3.6385083	двері
-4.778177	б’є
-4.778177	хлопчина
-4.0568247	йде
-5.0369368	дорі
-5.0369368	заплющити
-4.499932	бігти
-5.1932235	данко…
-5.0369368	губах
-5.31798	веселих
-5.0369368	прочитала
-4.8885636	уголос
-5.0369368	привіт
-4.4513865	навпроти
-5.31798	киває
-4.8885636	усміхається
-5.31798	знічено
-5.0369368	ненавидить
-5.31798	відчайдушногостро
-5.0369368	«привіт»
-4.8885636	розгубився
-5.31798	супиться
-5.0369368	роздратовано
-5.31798	дорину
-5.1932235	долоньку
-3.252557	знову
-5.1932235	змерзла
-5.31798	шаріється
-5.31798	дотику
-5.1932235	спина
-4.8885636	гаряча
-4.8885636	горять
-5.31798	хитає
-5.31798	заперечливо
-5.0369368	тремтить
-5.31798	ховає
-4.267037	спину
-4.690238	перейти
-4.778177	звичкою
-3.9293728	мову
-5.31798	жестів
-4.690238	здогадався
-5.31798	німа
-5.0369368	глуха
-5.1932235	губиться
-5.31798	кльово
-4.8885636	зустрілися
-4.407726	згадував
-5.0369368	тебе…
-4.690238	ота
-5.1932235	жінка…
-5.31798	жвавішає
-4.8885636	обертається
-5.31798	підземного
-5.31798	вимучено
-5.1932235	мордує
-4.8885636	сумку
-5.31798	дорою
-5.0369368	фонді
-5.31798	сердюка
-5.31798	працюєш
-5.31798	може…
-4.3317094	чує
-5.0369368	данка
-5.0369368	б’ється
-4.499932	просить
-5.31798	досить…
-4.778177	біжи
-5.31798	підгинаються
-4.8885636	прохасько
-4.3317094	тарас
-5.0369368	феномен
-4.5545945	галицької
-4.075747	кухні
-4.499932	ї
-5.31798	«усі
-5.1932235	панські
-4.690238	страви
-5.31798	европі
-5.0369368	чужині
-5.31798	ріжноманітні
-5.0369368	американські
-5.31798	«спеціали»
-5.31798	пригадували
-5.1932235	пшеничної
-4.778177	паляниці
-5.1932235	мачанкою
-5.0369368	бринзи
-5.1932235	американці
-4.690238	варять
-4.8885636	бульбу
-3.5161486	якби
-4.690238	дай
-4.3680563	боже
-5.0369368	винесла
-4.021288	українська
-5.31798	селянка
-5.31798	косарям
-5.1932235	цеї
-4.8885636	бульби
-4.160944	поле
-5.31798	ручу
-5.0369368	злетіла
-5.31798	хустка
-3.7072783	голови
-4.210759	їсти
-5.31798	американській
-5.31798	ресторації
-3.2613633	хоч
-3.98844	знати
-5.31798	приготовлену
-5.0369368	спричинює
-4.8885636	горлі
-3.5551722	такого
-5.31798	галицькому
-5.31798	емігрантові
-5.31798	кораблем
-5.31798	морі»
-5.31798	ностальгічно
-4.1162596	писав
-5.1932235	батьківщину
-4.690238	отець
-5.31798	олекса
-5.31798	пристай
-4.5545945	шукаючи
-4.237987	відповіді
-3.7507827	якою
-4.407726	галицька
-5.1932235	ментальність
-5.0369368	оминути
-3.7241607	такої
-5.31798	визначальної
-4.407726	кухня
-5.31798	гастрономія
-5.0369368	звичаї
-4.3680563	пов’язані
-5.31798	трапезою
-4.4513865	скажи
-5.1932235	їж
-4.1851377	скажу
-3.4518418	тобі
-5.31798	абсолютні
-4.778177	істини
-3.652877	стали
-5.1932235	опорою
-4.690238	проводить
-5.31798	наймолодше
-4.1162596	покоління
-4.8885636	львівських
-4.8885636	істориків
-5.31798	означенні
-5.31798	багатоманітного
-5.1932235	феномену
-4.4513865	назвати
-4.8885636	загальним
-4.690238	поняттям
-5.0369368	«галицька
-5.31798	кухня»
-4.8885636	довший
-4.4513865	вистачало
-5.31798	важливої
-5.31798	складової
-4.004554	справа
-5.0369368	називаємо
-5.31798	галицькою
-5.1932235	кухнею
-5.1932235	явищем
-5.31798	недавнім
-4.8885636	певна
-5.31798	цілість
-5.0369368	склалася
-3.7890246	щойно
-5.1932235	тридцятих
-4.3317094	роках
-3.7991352	минулого
-3.7791438	століття
-5.31798	фантасмагоричним
-5.1932235	поєднанням
-4.4513865	страв
-4.499932	традицій
-4.021288	кількох
-4.3680563	народів
-5.31798	кільканадцяти
-4.6171417	суспільних
-5.31798	прошарків
-4.0568247	жили
-4.407726	галичині
-3.6314983	разі
-5.0369368	реальним
-4.267037	столом
-4.4513865	представники
-3.3958404	цих
-4.1851377	груп
-4.075747	практично
-5.31798	перетиналися
-5.31798	вимушене
-4.690238	співжиття
-5.31798	базові
-3.7991352	умови
-4.021288	існування
-5.31798	зумовлені
-4.690238	краєм
-5.0369368	сприяли
-5.31798	інтенсивному
-5.31798	обмінові
-5.1932235	продуктами
-4.690238	знаннями
-5.31798	уміли
-3.7072783	зробити
-4.690238	з’їсти
-4.5545945	відчуваючи
-4.3680563	ніякого
-5.1932235	відторгнення
-5.31798	екзотичності
-5.1932235	досконалим
-5.1932235	виявом
-5.31798	міксу
-5.31798	специфічна
-5.31798	гастрономічна
-3.5791543	мова
-5.31798	лексикон
-5.0369368	імен
-4.267037	продуктів
-5.31798	маніпуляцій
-5.1932235	інструментів
-5.31798	повадок
-5.1932235	універсальний
-3.526945	мов
-4.8885636	присутніх
-3.6385083	зрештою
-4.3317094	триває
-5.31798	рецептури
-4.5545945	приготування
-4.8885636	обмін
-5.0369368	уявленнями
-5.1932235	правильну
-4.778177	їжу
-5.31798	принциповіших
-4.499932	основою
-4.8885636	ідеології
-4.095531	надзвичайно
-5.31798	характерним
-4.8885636	галицькій
-4.690238	важливими
-4.8885636	психологічних
-4.5545945	підходів
-4.3680563	головним
-5.1932235	робляться
-3.8773859	власного
-4.237987	задоволення
-4.407726	певної
-4.8885636	демонстрації
-3.9729033	іншим
-3.5324457	таким
-3.7156374	чином
-4.0568247	певний
-4.237987	набір
-5.0369368	обов’язкових
-5.0369368	критерієм
-4.8885636	формуванні
-4.6171417	переліку
-5.31798	заможність
-4.690238	спроможність
-3.5853624	мати
-5.1932235	достатній
-4.1851377	кількості
-5.31798	інгредієнти
-4.095531	вміння
-4.6171417	доступ
-3.9579031	знання
-5.1932235	доказ
-4.778177	ідентифікації
-4.8885636	причетності
-4.4513865	спільної
-4.407726	таємниці
-5.31798	криптологія
-4.8885636	терпить
-5.0369368	легковажності
-4.3680563	важливим
-4.690238	елемент
-5.31798	докладених
-4.4513865	зусиль
-5.31798	ретельне
-4.6171417	дотримання
-3.6246	кожного
-4.8885636	кроку
-5.31798	ускладненої
-4.499932	технології
-5.0369368	звичаїв
-4.4513865	аспект
-4.2981706	місцем
-4.3317094	вільно
-5.1932235	розвернутися
-5.0369368	збереглося
-4.3680563	матеріалу
-4.6171417	називаються
-4.778177	джерелами
-4.3680563	соціальні
-3.8535538	групи
-4.4513865	результаті
-5.31798	синтезували
-5.31798	галицьку
-4.5545945	кухню
-4.138027	активно
-5.31798	формували
-5.31798	пропагували
-5.31798	вчення
-4.8885636	залишивши
-4.3680563	безліч
-4.4513865	слідів
-5.1932235	згадок
-4.499932	книжок
-5.0369368	записів
-4.499932	публічних
-4.8885636	родинних
-5.0369368	архівів
-5.31798	гастрономічних
-5.31798	цитат
-4.690238	художній
-5.1932235	гуцульській
-5.31798	складовій
-4.5545945	сенсі
-5.1932235	поталанило
-5.1932235	гуцулів
-5.31798	екзотику
-5.31798	звернули
-5.31798	чисельні
-5.31798	етнографи
-5.31798	антропологи
-5.31798	зафіксувавши
-4.4513865	деталі
-5.1932235	найголовнішого
-4.5545945	бракувало
-5.31798	задокументованих
-5.0369368	свідчень
-4.237987	харчування
-5.31798	селянства
-5.31798	негірського
-5.1932235	стефаника
-4.4513865	замало
-5.31798	екстрім
-4.3680563	інтерес
-4.3680563	їжі
-4.8885636	щоденної
-3.3799675	тих
-5.0369368	галичан
-3.219016	нічого
-4.6171417	розповідали
-4.778177	підходи
-3.1382487	яких
-4.095531	незважаючи
-5.0369368	виразний
-4.5545945	потяг
-5.31798	«панськості»
-4.3317094	загальної
-5.31798	–стали
-5.0369368	природною
-5.1932235	раціональною
-4.267037	їли
-5.1932235	містечках
-5.1932235	вивів
-4.778177	дослідників
-4.4513865	джерел
-4.2981706	випадково
-5.0369368	знайдені
-5.31798	невипадкові
-4.237987	спогади
-5.31798	священикаемігранта
-5.31798	галицькі
-4.6171417	селяни
-5.31798	двадцятого
-5.0369368	харчувалися
-3.7417262	досить
-5.1932235	сіяли
-5.1932235	пшеницю
-5.1932235	жито
-5.0369368	ячмінь
-5.1932235	овес
-5.1932235	просо
-5.1932235	гречку
-5.1932235	садили
-4.3680563	картоплю
-4.5545945	цибулю
-5.0369368	часник
-5.0369368	брукву
-5.0369368	ріпу
-4.778177	голоду
-3.915781	знали
-3.5215135	хіба
-4.5545945	град
-5.31798	вибив
-5.1932235	збіжжя
-4.1162596	трави
-5.31798	зігнили
-5.31798	тривалі
-5.0369368	дощі
-4.407726	муки
-4.407726	варили
-5.1932235	чир
-5.31798	киплячу
-3.8309617	воду
-5.1932235	насипали
-5.1932235	жменю
-4.160944	готовий
-4.499932	давали
-4.3680563	виходила
-5.1932235	лемішка
-5.31798	пісними
-4.267037	молоком
-5.0369368	сметаною
-4.8885636	тертим
-5.1932235	окропі
-4.8885636	маком
-4.4513865	олією
-4.6171417	пекли
-4.499932	тонкі
-5.31798	кружки
-5.1932235	пшеничного
-4.778177	тіста
-5.1932235	випечені
-5.31798	розжареній
-4.407726	печі
-5.0369368	потребували
-5.31798	приправи
-4.1162596	свята
-5.31798	поливали
-4.2981706	медом
-5.31798	розчиненою
-4.778177	молоці
-5.0369368	старою
-4.778177	бринзою
-5.31798	галушки
-5.31798	незцідженій
-5.31798	юшці
-5.1932235	називалися
-5.31798	стиранкою
-4.0568247	робили
-5.31798	житньої
-5.31798	ячменю
-5.1932235	крупи
-5.1932235	круп
-5.1932235	крупинку
-5.0369368	голубці
-5.31798	опиханий
-5.1932235	ступі
-4.778177	називався
-5.31798	логаза
-5.31798	пенцак
-5.31798	логазу
-5.1932235	бобом
-5.31798	фасолею
-5.31798	горохом
-5.31798	вес
-5.1932235	мололи
-5.1932235	млині
-3.9729033	вдома
-5.1932235	жорнах
-4.5545945	кашу
-5.1932235	вівсяної
-5.0369368	квашеної
-5.1932235	улюбленими
-5.31798	ласощами
-5.31798	топленими
-4.8885636	маслом
-5.0369368	капусти
-5.31798	помащені
-5.31798	конопляним
-5.31798	льняним
-5.1932235	гарбузовим
-5.31798	олієм
-5.1932235	улюбленою
-5.1932235	стравою
-4.8885636	святий
-4.2981706	вечір
-5.1932235	квашену
-4.5545945	капусту
-5.0369368	сирої
-4.4513865	любили
-5.31798	запікати
-5.31798	вареним
-3.2826333	якого
-3.7507827	значно
-5.1932235	варений
-5.1932235	біб
-4.778177	виконував
-4.021288	роль
-5.31798	підвечірка
-5.1932235	фасолю
-4.407726	горох
-4.2981706	«на
-5.31798	сухо»
-4.2981706	хліба
-5.31798	колотили
-5.31798	нарідко
-5.31798	галушками
-4.3680563	пироги
-4.267037	картоплі
-5.31798	заправляючи
-4.690238	сиром
-5.31798	порізавши
-5.1932235	кружальця
-4.267037	цибулею
-5.1932235	хлібом
-4.267037	влітку
-5.31798	стручкову
-5.31798	заправивши
-5.31798	першорядне
-5.0369368	займала
-4.690238	капуста
-5.31798	сирою
-4.499932	олії
-4.690238	цибулі
-5.31798	капусняки
-5.31798	пражили
-5.31798	м’ясом
-5.31798	домішкою
-4.690238	сиру
-4.690238	важливою
-5.1932235	підмогою
-4.5545945	плоди
-5.31798	фруктових
-4.075747	дерев
-4.6171417	передовсім
-4.8885636	продавали
-5.31798	отримуючи
-4.4513865	живі
-3.6246	самі
-5.31798	зварені
-5.1932235	сушені
-4.8885636	вишні
-5.31798	заправляли
-5.31798	пшеничною
-5.31798	мукою
-4.8885636	називалося
-5.1932235	поливкою
-5.1932235	яблук
-5.1932235	грушок
-5.1932235	сливок
-4.6171417	зими
-4.407726	середній
-4.5545945	господар
-5.31798	насушував
-4.690238	кількадесят
-5.0369368	кілограмів
-5.31798	плодів
-5.0369368	смажили
-4.778177	повидло
-4.2981706	взимку
-4.8885636	додавали
-5.1932235	паляниць
-5.31798	галушок
-5.1932235	сушениць
-5.31798	поливку
-4.3317094	різноманітних
-4.5545945	способів
-5.31798	застосовували
-4.038693	спокійно
-3.5108495	могла
-5.0369368	щоденною
-5.31798	«її
-5.31798	появлення
-5.1932235	виганяє
-5.31798	переднівків
-5.0369368	голод
-5.31798	хат»
-5.31798	франко
-5.31798	нечищеною
-5.31798	обчистивши
-5.31798	квашеним
-5.0369368	квашеною
-5.0369368	капустою
-5.1932235	товченої
-5.31798	мачанку
-5.31798	ліниві
-5.31798	терту
-4.8885636	листі
-5.31798	треники
-5.31798	книші
-5.31798	терчаники
-5.1932235	терті
-5.31798	пляцки
-5.31798	«дерев’яні
-5.31798	голубці»
-3.7507827	гриби
-5.1932235	всілякими
-5.1932235	способами
-5.1932235	займали
-5.0369368	важливіше
-5.31798	аналізуючи
-4.0568247	джерела
-4.690238	історики
-4.6171417	висновки
-5.1932235	оберталося
-4.0568247	заради
-5.0369368	насититися
-4.0568247	силу
-3.8773859	працювати
-4.778177	наступної
-5.1932235	простота
-5.31798	селянської
-5.31798	убогістю
-5.1932235	прагматичною
-4.095531	метою
-4.690238	споживання
-3.9729033	дивно
-5.31798	займало
-4.267037	головного
-4.8885636	всіляких
-5.31798	ритуалах
-5.31798	святкуваннях
-5.0369368	поодинокі
-5.31798	знакові
-5.31798	кутя
-5.31798	калачі
-5.31798	паски
-4.160944	мед
-4.8885636	пили
-3.9579031	переважно
-5.31798	квасне
-3.9434037	молоко
-5.31798	узвар
-5.0369368	зимою
-4.210759	чай
-5.1932235	липового
-5.0369368	цвіту
-5.31798	кмину
-5.31798	рожі
-4.4513865	усієї
-5.31798	алкогольної
-3.6385083	культури
-5.31798	поширеним
-5.1932235	пиття
-4.5545945	горілки
-3.9729033	щоправда
-5.31798	заправленої
-4.8885636	часником
-5.1932235	кмином
-5.31798	модерні
-4.4513865	починаючи
-5.31798	характеризувалися
-5.31798	більшим
-5.31798	проникненням
-5.31798	містечкової
-4.690238	селян
-5.31798	зворотнім
-5.1932235	процесом
-4.499932	загальна
-4.8885636	перестала
-5.31798	соромитися
-5.31798	простацьких
-3.902602	деякі
-5.31798	культовими
-4.1162596	звичайно
-5.31798	уніфікований
-4.690238	радянський
-5.0369368	асортимент
-5.31798	глобалістичної
-4.1162596	зробили
-5.1932235	запанував
-5.31798	постмодернізм
-4.3317094	визнати
-5.31798	ностальгічність
-4.499932	сільської
-4.3680563	засобом
-4.499932	всупереч
-5.31798	принципові
-5.1932235	страва
-4.778177	робиться
-5.0369368	показ
-4.095531	запах
-5.1932235	мяса
-5.1932235	спилимо
-5.31798	спиляємо
-5.0369368	майці
-4.778177	фантазії
-4.8885636	виникли
-4.021288	побачила
-5.31798	світлину
-4.8885636	білої
-3.6753628	хати
-3.7991352	посеред
-5.31798	здичавілих
-5.1932235	груш
-4.8885636	світанок
-5.0369368	олені
-4.690238	виходять
-5.31798	лісу…
-5.31798	потьмяніла
-5.31798	картинка
-4.8885636	непотрібна
-4.778177	толі
-3.2952724	чого
-5.31798	приїхав…
-4.5545945	почула
-5.31798	полканів
-4.8885636	бензин
-5.1932235	витратив
-5.31798	утричі
-4.237987	дала
-4.3317094	давай
-5.1932235	уже…
-4.8885636	ходімо
-4.6171417	твоєї
-5.31798	добавиш
-4.690238	десятків
-3.8421109	гривень
-5.31798	теє…
-4.407726	витрати
-5.0369368	великдень
-4.6171417	нормально
-5.31798	відсвяткував
-5.0369368	проблемами
-5.31798	вашими…
-4.778177	прошепотіла
-4.095531	майка
-3.8773859	спершу
-5.1932235	оленя
-5.31798	дочекаюся…
-5.31798	галаган
-4.6171417	здивовано
-4.8885636	розвів
-3.8200917	руками
-4.3680563	недарма
-5.1932235	здимів
-4.690238	дівка
-5.0369368	підозріла
-5.31798	голою
-4.407726	ходила
-5.31798	саніжида
-5.31798	прибилася
-5.31798	верзе
-5.1932235	казнащо
-4.075747	грошей
-5.0369368	дам
-5.1932235	відказала
-4.075747	од
-4.095531	дверей
-4.407726	уляна
-3.5493782	скільки
-3.98844	вийшла
-5.1932235	санджива
-3.98844	десять
-5.31798	капулетцівська
-5.31798	делегація
-5.31798	забралася
-5.0369368	жваво
-5.31798	обговорюючи
-5.1932235	чудну
-4.690238	реакцію
-4.1851377	дівчини
-5.31798	підлий
-4.778177	вчинок
-5.1932235	тольки
-4.8885636	гороха
-5.0369368	нормі
-3.7156374	сказала
-5.1932235	сандживу
-5.31798	повішуся…
-5.31798	прийми…
-3.8773859	душа
-5.31798	заспокоїться
-4.8885636	порадив
-4.5545945	ох
-3.652877	легко
-4.6171417	знай
-4.160944	квітка
-5.31798	оранжерейна
-4.237987	справжніх
-5.31798	негод
-4.160944	невже
-5.31798	зраджували
-4.778177	спитала
-5.1932235	приголомшено
-5.31798	простив…
-5.0369368	знизав
-4.3680563	плечима
-3.267335	ніби
-5.31798	вибачився
-5.31798	пішов…
-4.021288	мною
-4.690238	йди
-5.1932235	вискочила
-4.499932	надвір
-4.407726	ґанку
-5.1932235	крутиться
-5.31798	косує
-5.1932235	майку
-5.1932235	стривожено
-5.31798	зойкнути
-5.31798	кинеться
-5.31798	поміч
-5.1932235	ні…
-4.778177	подякувала
-5.31798	сусідці
-5.1932235	посунула
-4.0568247	лісу
-3.7328546	сонце
-4.8885636	світило
-3.8535538	вітер
-5.31798	цілував
-4.8885636	помічала
-4.004554	дивилася
-3.7328546	ноги
-5.1932235	незрозумілому
-5.31798	байдужому
-4.4513865	спокою
-5.31798	огорнув
-3.915781	душу
-5.31798	живий…
-4.1162596	толя
-4.499932	живий
-4.8885636	так…
-5.31798	сказав…
-4.407726	тримала
-4.210759	чекала
-5.31798	щохвилини…
-4.210759	любив
-4.407726	зупинилася
-5.31798	всілася
-5.31798	поваленій
-5.31798	сосні
-3.1804338	при
-5.31798	ґрунтовій
-4.210759	дорозі
-4.8885636	соломія
-4.4513865	оком
-4.6171417	глянути
-3.9579031	зрозуміти
-4.160944	сила
-5.31798	поламали
-4.4513865	сильно
-5.31798	кохає
-3.9293728	любила
-5.0369368	толю
-4.6171417	хтозна
-5.31798	«люблю»
-5.1932235	клялася
-4.3680563	брат
-3.9434037	точно
-4.6171417	друг
-4.2981706	рідна
-4.778177	простягнув
-5.31798	вихопив
-5.0369368	моторошної
-5.31798	ями…
-4.6171417	ста
-4.6171417	мріяла
-3.360909	ним
-3.8421109	поряд
-4.3680563	спокій
-4.075747	радість
-3.4611363	сказав
-5.31798	роздратувалася
-5.31798	завелася
-4.6171417	друзі
-5.31798	вчиняють
-5.31798	задумалася
-5.31798	гірко…
-3.9729033	страшно
-5.1932235	відступив
-4.5545945	злякався
-5.31798	зрадив…
-5.1932235	здивувалася
-5.31798	виснажливих
-5.1932235	болях
-5.31798	обнадійливому
-5.31798	одужуванні
-5.31798	згадувала
-5.31798	незримо
-4.778177	спостерігав
-5.1932235	майкою
-5.1932235	«є
-5.31798	рита»
-5.31798	роззирнулася
-4.690238	навкруги
-3.9579031	хочеться
-4.8885636	крапку
-4.8885636	перетворитися
-4.8885636	самотньої
-5.31798	майчиної
-5.0369368	гіркоти
-4.499932	сосни
-4.3317094	тварини
-5.31798	птахи…
-5.31798	«кру»…
-4.8885636	підвела
-4.778177	небесах
-4.690238	крук
-4.778177	кричав
-5.31798	безперестанно
-5.31798	«крукру…»
-5.31798	нижче…
-5.31798	зіщулилася
-5.31798	налетить
-5.0369368	вихором
-5.31798	битиме
-4.5545945	гострим
-5.31798	дзьобом
-5.31798	уб’є
-5.31798	полює
-4.8885636	підхопилася
-3.7991352	різні
-5.1932235	«чого
-5.0369368	нападати
-5.31798	здумав
-4.499932	пара
-4.407726	втратив
-3.8653064	буває
-4.2981706	дізнатися
-5.1932235	б»
-4.3680563	побігла
-4.8885636	хутора
-5.31798	відставав
-3.9434037	зробив
-3.8421109	коло
-5.31798	майчиною
-4.499932	опинився
-5.1932235	піднявся
-5.1932235	небеса
-5.0369368	стрімголов
-5.31798	понісся
-4.1851377	дівчину
-5.31798	зойкнула
-5.31798	перечепилася
-4.267037	камінь
-4.8885636	затулила
-3.6314983	голову
-4.237987	відчула
-5.1932235	крукових
-4.8885636	крил
-5.31798	сколихнулося
-3.7791438	повітря
-4.5545945	вдарив
-5.31798	хиже
-5.31798	сичання
-5.31798	відняла
-4.499932	лиця
-5.1932235	вигинав
-4.778177	хаус
-5.1932235	крутив
-4.8885636	стежив
-5.31798	круком
-5.1932235	плигнув
-4.5545945	високо
-5.31798	виявися
-5.1932235	спритнішим
-5.1932235	злетів
-5.31798	височінь
-5.31798	закрукав
-5.0369368	голосніше
-5.0369368	подався
-5.31798	хаусе…
-5.31798	зіпнулася
-4.4513865	підійшла
-5.31798	котиська
-5.1932235	жадав
-4.8885636	близьких
-4.8885636	контактів
-5.31798	відскочив
-4.690238	убік
-5.0369368	зиркнув
-5.0369368	холодними
-5.31798	жовтими
-5.0369368	щез
-4.778177	високій
-4.160944	траві
-3.9729033	стояла
-4.8885636	вдалині
-4.2981706	хутір
-4.778177	несуть
-4.6171417	зникли
-4.004554	бажання
-5.0369368	зігрітися
-4.5545945	усміхнулася
-5.31798	спустошено
-5.31798	подибала
-4.778177	обійстя
-3.915781	дім
-5.31798	просиділа
-5.31798	дякувала
-5.31798	уляні
-5.1932235	чіпали
-5.1932235	надокучали
-5.0369368	темрявою
-4.690238	увійшла
-3.8309617	світла
-5.31798	запалювала
-5.31798	намацала
-3.9293728	декілька
-5.1932235	крашанок
-5.0369368	влізли
-5.31798	великоднього
-4.778177	кошика
-4.778177	лишилися
-4.2981706	столі
-5.31798	обчистила
-3.699077	одну
-5.0369368	з’їла
-5.1932235	лягла
-5.1932235	тапчан
-4.8885636	поїзди
-5.31798	літаки…
-5.1932235	гнала
-5.0369368	гіркі
-5.31798	вмовляла
-5.31798	«спати
-4.210759	спати
-5.1932235	забутися
-3.902602	ранку
-4.004554	завтра
-3.8898108	стане
-5.31798	легше»
-5.31798	заснула
-4.3317094	ранок
-5.31798	сповзла
-5.31798	тапчана
-5.31798	побрьохала
-4.8885636	грубки
-5.31798	топити
-4.004554	тепло
-5.31798	електрики
-4.6171417	чаю
-5.31798	зігріти…
-5.1932235	закинула
-5.1932235	грубку
-5.31798	березові
-4.499932	дрова
-4.267037	тиждень
-5.0369368	привіз
-5.31798	поскладав
-5.31798	чавунні
-4.690238	кільця
-4.778177	чайник
-5.1932235	купив
-5.0369368	полізла
-4.6171417	цукор
-5.31798	заварку
-5.31798	толя…
-5.31798	збентежилася…
-5.0369368	перелякалася
-4.8885636	житиме
-5.0369368	згадала
-5.0369368	гаманець
-5.0369368	походу
-5.31798	томиного
-5.31798	магазину
-4.499932	забула
-5.1932235	дбав
-5.31798	ого…
-5.31798	шістсот
-4.4513865	тридцять
-5.31798	лишилося…
-4.4513865	знайшла
-5.0369368	полиці
-5.1932235	глиняний
-5.31798	горщичок
-5.31798	толею
-5.31798	слугував
-4.6171417	повертався
-5.1932235	заробітків
-5.1932235	вкидав
-4.1851377	гривні
-5.31798	горщика
-5.31798	«маню…
-5.1932235	кришку
-5.0369368	знайди
-5.31798	миші
-5.1932235	доберуться
-5.31798	погризуть
-5.31798	гроші…»
-4.237987	тисячі
-5.31798	вісімсот…
-5.0369368	знадвору
-5.31798	шурхіт
-4.5545945	кинула
-5.31798	горщик
-4.690238	санджив
-5.31798	похазяйськи
-5.31798	накриває
-5.1932235	брезентом
-4.8885636	китайський
-5.1932235	дирчик
-4.6171417	кола
-5.1932235	навертає
-5.31798	обіцяють…
-5.31798	«доброго
-5.31798	ранку»
-4.778177	ти…
-4.1851377	можеш
-5.0369368	заходити
-5.1932235	заманеться
-5.31798	вибач
-3.902602	прийшов
-5.31798	запросити
-5.31798	чаювала
-5.31798	випроводила
-4.5545945	сіла
-4.138027	повернеться
-5.1932235	городом
-5.1932235	оглядала
-5.31798	прив’ялі
-5.31798	поливання
-4.3680563	кущі
-5.31798	помідорів
-5.1932235	грядки
-5.31798	буряками
-4.8885636	морквою
-4.8885636	заходилася
-4.8885636	колодязя
-5.1932235	тягати
-5.1932235	маня
-4.4513865	ліки
-4.237987	он
-5.31798	зцілювався…
-4.210759	кохання
-5.1932235	нещасливого
-5.1932235	соломію
-5.1932235	вона…
-5.31798	ууу
-5.1932235	стерво
-5.31798	кохала
-5.31798	морочила
-4.095531	повернувся
-5.31798	соломії…
-5.31798	скалічений
-5.1932235	зраділа
-5.31798	страшному
-5.31798	гороховому
-5.31798	горю
-4.8885636	заливала
-4.6171417	холодною
-3.7694829	водою
-4.407726	город
-3.9579031	бачила
-5.31798	незнайому
-5.1932235	хижу
-5.31798	ожила
-5.31798	чиє
-5.31798	звеселиться
-4.407726	бачиш
-5.31798	палке
-5.31798	коробова
-4.6171417	згадує
-5.31798	клявся
-5.31798	кохати
-4.6171417	вічно
-4.160944	чекати
-5.1932235	скону
-5.31798	«іди
-5.1932235	біса»
-4.160944	отак
-5.1932235	вчинить
-3.140488	буде
-5.31798	поманить
-5.31798	розщедриться
-5.31798	краплею
-4.690238	бери
-5.0369368	кульгавий
-5.31798	щезне
-5.1932235	наїсться
-4.075747	любові
-5.31798	досхочу…
-5.31798	мані
-5.0369368	курей
-5.31798	заведуть
-5.0369368	надлишок
-5.31798	продадуть
-5.31798	ганятимуть
-5.31798	дирчику
-5.0369368	лісами
-4.8885636	ягоди
-3.915781	казав
-5.31798	суниці
-5.31798	малини
-4.8885636	лісах
-5.31798	сонячних
-5.1932235	галявинах
-5.31798	грибів…
-4.499932	одних
-4.237987	білих
-5.0369368	заробити
-5.31798	горіхах
-3.9579031	нікуди
-4.237987	звідси
-4.778177	поїду
-5.0369368	дочекаюся
-5.31798	упевнилася
-5.31798	полила
-3.9729033	хаті
-4.210759	лад
-5.0369368	наводити
-5.1932235	поскладає
-5.31798	толині
-5.1932235	рівненько
-5.31798	здивується
-5.31798	«маня
-5.31798	вихор»
-5.1932235	розкидає
-4.095531	йшов
-5.1932235	вляглася
-4.8885636	стелю
-5.1932235	блакитній
-4.778177	стелі
-4.138027	чорні
-5.0369368	плями
-5.31798	круки
-5.31798	кляті…
-5.31798	зурочите
-5.31798	затялася
-3.7890246	вікна
-5.31798	крука
-5.31798	хауса
-4.6171417	груші
-5.31798	шлунку
-5.31798	занило
-5.1932235	кинулася
-5.31798	википів
-5.31798	тріщав
-5.31798	чавунних
-5.31798	кільцях
-5.31798	емаль
-5.1932235	шматками
-5.31798	відколювалася
-5.0369368	дідько
-5.31798	відсунула
-5.1932235	каструльку
-5.0369368	проґавив
-5.31798	чайник…
-5.31798	пропаду
-5.31798	пробурмотіла
-5.1932235	невпевнено
-4.778177	надвечір
-5.31798	середи
-5.0369368	великодня
-5.1932235	хвіртки
-3.6314983	мала
-3.6831245	швидко
-4.3317094	любов’ю
-5.0369368	кульгавого
-4.8885636	відпустити
-5.31798	зализував
-5.0369368	забував
-5.31798	забувався
-5.31798	маниних
-4.778177	обіймах
-5.31798	дитино…
-5.31798	знаю…
-5.31798	поїдеш
-4.004554	оце
-3.6246	кого
-4.210759	хату
-5.0369368	веселий
-5.31798	електриками
-5.31798	добриках
-5.31798	домовився…
-5.0369368	поминальної
-4.8885636	неділі
-4.8885636	дроти
-5.31798	полагодили
-5.31798	приїдуть…
-5.31798	приїдуть
-5.31798	добре…
-5.0369368	їду
-3.98844	чогось
-4.3317094	купити
-5.0369368	знадобиться
-5.31798	моторолер
-5.1932235	сяду
-4.3317094	завгодно
-5.31798	доїду
-5.0369368	зухвало
-5.31798	відрізала
-5.0369368	глянула
-5.1932235	стурбовано
-3.7417262	важко
-5.31798	вигукнула
-4.6171417	нізащо
-4.778177	покине
-5.0369368	побачите
-5.31798	закивала
-4.5545945	двору
-5.0369368	завмерла
-4.237987	вулицю
-5.31798	уляно…
-4.778177	спитати
-5.31798	хотіла…
-4.8885636	сусідки
-5.31798	насупилася
-5.31798	думаю…
-5.0369368	заробляють
-5.0369368	заробляти
-5.1932235	все…
-5.31798	тепер…
-5.31798	думайте
-5.31798	хочу…
-5.1932235	заробляв
-4.8885636	я…
-3.8200917	селі
-4.8885636	господарств
-3.3217103	своїх
-5.31798	городиною
-5.1932235	торгує
-4.778177	худобу
-5.31798	розводить
-4.1162596	м’ясо
-5.31798	підторговують
-5.31798	чим…
-5.31798	підробляють
-5.31798	ремонтах
-5.31798	будівництвах…
-4.8885636	заробітки
-5.0369368	їдуть
-5.31798	навчіть
-4.8885636	свічки
-5.31798	навчу
-4.778177	пообіцяла
-5.1932235	їдете
-5.31798	четвер…
-5.31798	капулетці
-4.778177	обговорювали
-5.0369368	втечу
-5.31798	городської
-5.1932235	лупиного
-5.31798	розгризлися
-5.0369368	табори
-5.0369368	горою
-5.0369368	доброї
-5.1932235	дремене
-4.1162596	бачили
-5.0369368	тягав
-5.31798	горбу
-4.095531	тій
-5.1932235	дівці
-5.1932235	мішками
-5.1932235	ледащо
-4.690238	витримає
-4.5545945	баби
-4.690238	особливої
-5.31798	прихильності
-5.31798	майки
-3.652877	мали
-3.9729033	почуття
-4.267037	жіночої
-5.31798	солідарності
-5.31798	відгавкувалися
-4.237987	брали
-5.31798	їжте
-5.31798	повилазьте
-4.075747	ото
-5.31798	щезати
-4.690238	селу
-5.1932235	зізнався
-4.407726	дружиною
-3.915781	ледь
-5.1932235	полкан
-5.31798	галаганом
-5.31798	розбороняли
-3.9293728	особи
-3.9434037	всю
-4.160944	правду
-3.9293728	події
-5.1932235	дівку
-5.31798	жалів
-5.0369368	курсі
-5.31798	була…
-5.0369368	брехав
-4.778177	винна
-5.31798	заявляв
-5.31798	галаганові
-5.1932235	пательня
-5.31798	гріла
-5.31798	тольку
-5.31798	лупонув…
-5.31798	ярився
-5.31798	толька
-5.31798	йолоп
-4.3317094	вірив
-4.8885636	поважні
-3.8200917	хай
-5.31798	відхаркує
-5.31798	стервом
-5.31798	зв’язався
-5.1932235	заспокоївся
-5.0369368	середу
-5.31798	куми
-4.6171417	зібралися
-5.0369368	сім’ями
-5.31798	реп’яхів
-4.690238	удома
-5.31798	чарку
-5.31798	піднімав
-5.1932235	«христос
-5.31798	воскрес»
-5.31798	гаврилів
-5.31798	тимофій
-5.0369368	неузгодженостей
-3.9434037	ставлення
-5.31798	становлення
-5.1932235	становленнязмужніння
-5.31798	становленнямужніння
-4.3680563	паче
-5.1932235	йдінню
-5.1932235	зумовленому
-5.31798	ході
-5.31798	зумовленій
-4.8885636	укладено
-4.4513865	«від
-4.8885636	збірку
-5.1932235	передше
-4.4513865	порога
-4.778177	порога»
-5.31798	пауля
-5.0369368	целяна
-5.31798	найрадикальніших
-5.31798	реформаторів
-3.9579031	мовлення
-5.31798	чернівчанина
-3.7417262	народження
-5.31798	парижця
-4.778177	вибором
-4.690238	тисяча
-4.778177	дев’ятсот
-4.407726	п’ятдесят
-5.1932235	п’ятого
-4.690238	ставши
-5.1932235	номінально
-4.8885636	третьою
-5.0369368	поетичному
-5.1932235	доробку
-4.237987	першу
-5.31798	поетичну
-5.31798	опубліковану
-4.778177	відні
-5.0369368	сімома
-4.3317094	роками
-5.31798	форсмажорних
-4.138027	обставин
-4.778177	неохоче
-4.2981706	суті
-5.31798	зрікшись
-5.31798	сповненої
-4.8885636	численних
-4.690238	помилок
-5.31798	ввівши
-5.31798	вміщені
-4.8885636	відому
-4.3317094	усьому
-5.31798	висміяну
-4.1162596	зустрічі
-5.31798	«групи»
-5.31798	«фугу
-5.31798	смерті»
-5.0369368	самостійним
-5.31798	циклом
-4.160944	другої
-4.690238	поезій
-5.1932235	волів
-4.267037	починати
-5.31798	бібліографію
-4.038693	перші
-5.1932235	виткані
-5.31798	кроснах
-4.690238	традиційного
-5.1932235	барвистими
-5.0369368	візерунками
-5.1932235	ліричні
-4.4513865	рядки
-4.407726	радше
-5.31798	символізму
-5.31798	сюрреалізму
-4.8885636	раннього
-5.1932235	незрідка
-5.31798	зараховують
-4.267037	огляду
-4.3680563	стосунки
-5.31798	французькими
-5.31798	сюрреалістами
-5.31798	символістів
-5.1932235	перекладав
-4.8885636	неабиякий
-4.267037	молодого
-5.31798	митця
-4.5545945	пора
-5.31798	шукання
-4.407726	голосу
-5.1932235	випробовування
-5.31798	огранювання
-5.31798	гартування
-3.9434037	доки
-5.31798	віршіподихи
-5.31798	потрапляючи
-5.31798	морозяне
-5.0369368	прихильних
-5.1932235	публіки
-4.778177	перетворилися
-4.6171417	міцні
-5.31798	високоопірні
-5.31798	кристалидіаманти
-4.8885636	стійкі
-5.31798	перепадів
-4.5545945	суспільного
-4.778177	тиску
-5.31798	партійної
-5.31798	інструменталізації
-5.1932235	збірка
-5.31798	щаблин
-4.038693	перших
-5.31798	важливіших
-5.0369368	тримають
-4.407726	забрати
-5.0369368	верхівка
-5.31798	повисне
-5.31798	викликаючи
-5.1932235	розгубленість
-4.8885636	сум’яття
-5.31798	ґенезу
-4.690238	внутрішню
-5.31798	логіку
-5.0369368	динаміку
-3.4902763	розвитку
-4.8885636	алгоритм
-5.0369368	виняток
-5.1932235	художня
-4.499932	творчість
-4.778177	целян
-4.2981706	мовби
-5.1932235	зумисне
-5.31798	закорінює
-4.778177	наступну
-5.1932235	попередній
-5.31798	в’яжучи
-4.8885636	міцними
-5.31798	вузлами
-4.690238	надійно
-5.31798	заґудзуючи
-4.237987	окремих
-5.0369368	мотивів
-4.8885636	образів
-5.31798	лексем
-5.31798	підхоплюваних
-5.31798	поміщуваних
-5.0369368	фрагментів
-5.1932235	циклів
-4.778177	взято
-5.0369368	попередньої
-5.31798	«мак
-5.31798	пам’ять»
-4.778177	вірша
-5.31798	«шансон
-4.8885636	дами
-5.31798	затінку»
-4.267037	поріг
-4.778177	центральних
-5.1932235	понять
-4.499932	філософії
-5.31798	екзистенціалізму
-5.1932235	німецький
-4.778177	внесок
-4.5545945	боки
-5.1932235	монети
-5.31798	французи
-4.6171417	наголос
-4.778177	виборі
-5.31798	мартін
-4.690238	гайдеґґер
-5.1932235	розмірковує
-5.31798	сегментах
-4.237987	творчості
-5.0369368	густий
-5.31798	непрохідний
-5.31798	змережаний
-5.31798	просіками
-5.31798	манівцями
-3.9579031	ліс
-4.778177	дотик
-5.31798	магічному
-5.31798	кришталеве
-4.160944	джерело
-5.31798	донауешинґені
-5.1932235	витікає
-5.0369368	дунай
-4.160944	край
-3.495329	якому
-5.31798	шварцвальдський
-5.1932235	філософ
-4.6171417	більшу
-5.0369368	зустрічався
-5.1932235	гайдеґґером
-5.0369368	ландшафт
-4.038693	краю
-4.778177	рослинність
-4.778177	стиль
-5.31798	сформували
-5.31798	мисленнєву
-5.0369368	гайдеґґера
-5.31798	запевне
-4.2981706	словник
-5.0369368	користувався
-5.31798	артикулювання
-4.2981706	думок
-3.8421109	випадку
-4.038693	належить
-5.0369368	найближчого
-4.5545945	оточення
-4.2981706	людської
-5.31798	сутності»
-4.499932	пише
-4.8885636	невеличкому
-4.1851377	назвою
-5.31798	«мова»
-3.9293728	текст
-4.237987	українському
-4.690238	перекладі
-4.8885636	опубліковано
-5.31798	дев’ятому
-4.075747	числі
-5.31798	журналу
-5.31798	«ї»
-5.1932235	дев’яносто
-5.1932235	шостий
-3.652877	рік
-3.3251312	свої
-5.1932235	будує
-5.0369368	тракля
-5.31798	«зимовий
-5.31798	вечір»
-4.5545945	рядок
-5.31798	«біль
-5.31798	закам’янів
-5.31798	порогом»
-5.31798	«вражає»
-4.499932	вірш
-5.0369368	описує
-5.0369368	атмосферу
-4.6171417	чекання
-3.9579031	чекає
-5.0369368	мандрівця
-5.31798	конструкт
-5.31798	виростаючи
-5.31798	підмурівку
-4.778177	висловлює
-4.0568247	увесь
-5.31798	онтичний
-3.915781	досвід
-5.1932235	стискаючи
-5.31798	«буття
-5.31798	найважливішого
-4.6171417	речення
-5.31798	квінтесенції
-5.31798	стосунковому
-5.31798	трикутнику
-5.31798	аґенс
-4.8885636	блукає
-4.778177	здатися
-4.778177	дія
-4.778177	активна
-5.31798	ходіння
-5.31798	бігання
-4.3680563	німці
-5.31798	колосально
-4.690238	відрізняються
-5.31798	французів
-5.31798	спадкоємців
-5.31798	буржуазної
-4.499932	революції
-5.31798	декапітувала
-5.31798	античність
-5.1932235	меншою
-5.31798	людовіка
-5.31798	«біг
-5.31798	прірви»
-5.31798	екзистенціалістський
-4.3680563	надає
-4.3680563	перевагу
-4.8885636	однаковою
-4.8885636	структурою
-5.0369368	ландшафту
-5.31798	зв’язком
-5.31798	еліністичною
-4.690238	традицією
-5.1932235	платон
-5.31798	філософує
-5.31798	походжаючи
-5.31798	алеями
-5.31798	створеної
-4.2981706	академії
-4.1851377	потребує
-4.8885636	блукання
-5.31798	вибагливіше
-5.31798	суттєвішої
-3.5215135	відповідно
-5.31798	суверенності
-4.3680563	формою
-4.3680563	руху
-5.31798	покликаною
-5.31798	полегшувати
-4.778177	отой
-4.095531	біль
-4.778177	фізичний
-5.1932235	екзистенційний
-4.778177	австрійського
-5.31798	модерніста
-5.31798	ґеорґа
-5.31798	деперсоніфіковане
-4.075747	стіл
-5.31798	господі
-4.267037	пропонує
-5.31798	«тепло
-5.1932235	своє»
-5.1932235	«хліб
-5.1932235	вино»
-5.1932235	кінцівки
-4.210759	першої
-5.0369368	третьої
-5.31798	строф
-4.4513865	утворюють
-5.1932235	дугу
-5.31798	скріплює
-4.8885636	сказане
-5.31798	спиначка
-4.210759	папір
-5.31798	спокушений
-4.267037	відомо
-4.4513865	біографії
-5.31798	сиренами
-5.1932235	поганства
-5.1932235	відтворює
-5.31798	інтерпретацією
-5.31798	траклевого
-5.31798	доглибно
-5.0369368	християнський
-5.31798	розділяючи
-5.31798	євхаристійні
-4.4513865	виконує
-5.0369368	ключову
-4.407726	функцію
-5.1932235	вбирає
-4.8885636	коротку
-5.0369368	контакту
-5.0369368	порогом
-4.778177	підстави
-4.3680563	болю
-5.31798	стурбованості
-5.0369368	тривоги
-5.31798	наріжних
-4.407726	почуттів
-5.31798	ексистенціалістського
-5.31798	світосприйняття
-5.1932235	інак
-5.31798	закоріненого
-5.31798	християнстві
-4.690238	наслідком
-5.31798	втраченого
-3.8898108	зв’язку
-5.31798	пуповину
-5.31798	перетято
-5.31798	мандрівець
-4.8885636	опиняється
-4.1851377	домі
-5.0369368	символізує
-5.31798	затишок
-4.407726	мету
-4.8885636	гість
-5.1932235	взаємини
-5.31798	целяном
-5.31798	опрацьовуватиме
-4.690238	майбутніх
-5.31798	віршах
-5.31798	закорінені
-5.0369368	книжці
-5.0369368	виникнення
-5.31798	вміщених
-5.31798	топосах
-4.1851377	самих
-3.809487	текстів
-3.6831245	історія
-5.1932235	взаємин
-5.31798	протривали
-4.8885636	шістдесят
-5.31798	дев’ятого
-3.9729033	початок
-4.6171417	другим
-4.778177	роком
-5.31798	датовані
-5.31798	включені
-4.210759	сорок
-5.1932235	називатися
-4.021288	«
-3.9579031	»
-5.1932235	серединою
-5.31798	кінцем
-5.31798	целяновій
-5.31798	книгозбірні
-5.0369368	томи
-5.1932235	німецького
-5.0369368	філософа
-5.31798	змережані
-5.31798	поетовими
-5.1932235	нотатками
-5.31798	осмислюють
-4.5545945	знайомство
-4.8885636	запитань
-4.8885636	відповідей
-5.31798	незгасний
-5.31798	пропускав
-4.778177	виходило
-5.31798	целянового
-5.1932235	пера
-5.31798	фатальна
-5.31798	дискомунікація
-4.778177	прагнув
-4.8885636	вибачення
-5.31798	покути
-5.0369368	москалець
-5.1932235	кость
-4.6171417	дар
-4.690238	безсоння
-4.1851377	хвороби
-4.8885636	написана
-4.021288	самим
-5.1932235	хворим
-4.8885636	вечірній
-4.778177	романи
-4.778177	повісті
-5.0369368	есеї
-5.0369368	абабагаламага
-5.0369368	важкодосяжна
-3.9434037	означає
-5.1932235	«бути
-5.31798	словом»
-4.6171417	пошуках
-4.8885636	одною
-5.1932235	проминають
-5.1932235	безсонні
-3.6910274	нашого
-5.31798	самотника
-5.1932235	принад
-5.31798	нічною
-5.1932235	тишею
-4.1162596	білого
-3.7241607	можливість
-5.31798	зосередження
-5.31798	«спонтанна
-5.31798	ейдетична
-5.31798	редукція»
-5.31798	створювана
-5.1932235	ясним
-4.778177	колом
-4.3680563	рівно
-5.31798	ллється
-5.31798	абажура
-5.31798	настільної
-5.1932235	лампи
-3.9579031	межі
-5.0369368	категорично
-4.8885636	заборонено
-5.1932235	вступати
-3.8309617	усім
-5.31798	віям
-5.31798	душам
-5.31798	блукають
-4.160944	тіл
-5.31798	решті
-4.778177	найрізноманітніших
-5.0369368	демонів
-3.98844	поза
-5.1932235	сумнівом
-4.210759	належать
-5.31798	недоречені
-5.0369368	випадкові
-5.31798	нездійснені
-4.5545945	мрії
-3.9729033	інколи
-5.31798	зосередженого
-5.31798	виправдовують
-5.1932235	надлишком
-5.1932235	покривають
-5.1932235	періоди
-5.31798	безсонного
-4.3680563	усю
-5.0369368	сукупність
-5.31798	абсурдного
-5.31798	проминання
-4.160944	людського
-4.237987	буття
-4.3317094	видається
-5.31798	самотникові
-4.1851377	чимось
-4.8885636	подібним
-5.31798	насичених
-4.690238	добрим
-5.31798	творчим
-4.3680563	живим
-5.31798	чувань
-5.31798	безперешкодним
-5.31798	плином
-4.210759	свідомості
-5.31798	знаному
-5.31798	бажаному
-4.138027	напрямку
-4.690238	бачиться
-5.0369368	цілковита
-5.31798	осмисленість
-4.267037	власної
-5.31798	екзистенції
-5.0369368	ясність
-4.690238	прозорість
-5.31798	океанічними
-5.31798	глибинами
-5.31798	несвідомого
-5.31798	трансперсонального
-4.778177	включно
-5.0369368	названо
-5.31798	висловлено
-5.31798	єдино
-4.690238	належний
-4.160944	людині
-5.31798	властивий
-5.1932235	гідний
-3.7791438	виконання
-4.8885636	«є»
-5.31798	кшталтування
-5.1932235	«існую»
-5.31798	позбавляння
-5.31798	вродженої
-5.31798	набутої
-5.1932235	аморфності
-5.0369368	проявлення
-4.8885636	структурі
-5.31798	структуровану
-5.31798	екзистенцію
-5.0369368	самотник
-5.31798	ототожнює
-5.1932235	дійсним
-5.1932235	буттям
-4.5545945	позаяк
-4.237987	можливі
-5.31798	співвіднесення
-5.0369368	невідомі
-3.6385083	завдяки
-4.8885636	життєвому
-4.004554	досвіду
-3.699077	знає
-5.31798	неспростовну
-3.9434037	кожна
-4.6171417	духовна
-5.1932235	споруда
-5.31798	зводить
-3.6831245	протягом
-5.0369368	руйнується
-5.0369368	розчинення
-4.407726	сні
-5.0369368	тече
-3.7991352	разів
-4.407726	доводилося
-4.4513865	сидіти
-5.0369368	закінчивши
-4.778177	духовні
-4.5545945	вправи
-3.9729033	справи
-5.31798	вибудуваність
-4.8885636	досконалість
-5.1932235	розпачем
-4.3680563	розуміти
-4.778177	чергового
-5.31798	зникання
-4.5545945	іншій
-4.690238	реальності
-5.31798	застанеш
-4.6171417	храму
-5.31798	жалюгідні
-4.6171417	рештки
-5.31798	потовчене
-5.31798	вітражів
-5.31798	статуї
-4.690238	богів
-5.31798	повідбиваними
-4.690238	головами
-3.9729033	забезпечити
-5.1932235	тяглість
-4.004554	створити
-4.4513865	живого
-5.31798	неперервного
-4.778177	можливим
-4.8885636	істоти
-5.0369368	усвідомлює
-5.31798	часовою
-5.31798	ідентифікуючи
-5.31798	«людиною»
-5.31798	вдаючись
-5.0369368	метафори
-5.31798	щонебудь
-4.8885636	збудувати
-5.0369368	правою
-5.0369368	свідомого
-5.31798	чування
-4.8885636	знищувати
-5.0369368	лівою
-5.1932235	непритомності
-4.237987	сну
-5.31798	безсонник
-4.267037	великим
-5.1932235	оригіналом
-5.31798	рятуючись
-5.31798	припливів
-5.0369368	хаосу
-5.1932235	ідеєю
-5.31798	направи
-5.31798	ритуалу
-5.31798	злій
-5.31798	безконечності
-5.31798	кочових
-5.31798	набігів
-5.1932235	протиставити
-4.5545945	добру
-5.31798	сталість
-5.1932235	неперервність
-4.6171417	опору
-5.0369368	ритуал
-5.31798	провідником
-4.778177	духовної
-4.499932	енергії
-5.31798	прірвами
-5.31798	методичному
-5.31798	щоденному
-5.31798	ретельному
-3.617809	самого
-4.6171417	сподівається
-5.1932235	уберегтися
-5.0369368	множинності
-5.31798	«невідворотних
-5.31798	випадковостей»
-3.8653064	словами
-5.1932235	поетки
-3.8535538	тієї
-5.1932235	вщерть
-5.31798	наповнене
-4.2981706	розуміє
-5.31798	істотною
-5.31798	імітація
-4.5545945	обраного
-4.3317094	ладу
-4.407726	неодмінно
-4.8885636	закінчується
-5.31798	конструюванням
-5.31798	нежиттєздатної
-5.31798	замкненої
-4.6171417	приклади
-5.1932235	імітації
-3.475462	кожен
-5.31798	казарма
-5.0369368	в’язниця
-5.0369368	лікарня
-4.778177	метро
-5.1932235	необхідною
-5.0369368	умовою
-5.31798	органічного
-4.138027	щоразу
-5.0369368	наново
-4.499932	уперше
-5.31798	неквапливе
-4.8885636	вирощування
-5.1932235	плекання
-5.0369368	образі
-4.690238	живої
-5.31798	похапливе
-5.31798	механічне
-4.690238	складання
-5.1932235	запасних
-4.690238	єдиним
-5.31798	життєвості
-4.8885636	обирає
-3.5853624	власне
-5.31798	безпомилковий
-5.0369368	прирощення
-4.778177	оте
-5.31798	непередаване
-5.31798	присутньої
-4.138027	святого
-4.2981706	духа
-4.499932	скористатися
-5.1932235	категоріями
-4.6171417	християнської
-5.31798	небуденну
-5.1932235	обставину
-5.31798	остаточна
-5.1932235	довершеність
-5.31798	остаточне
-4.778177	втілення
-4.407726	смертю
-5.31798	неможливістю
-4.499932	додати
-5.31798	спохоплююся
-4.1851377	мислення
-4.5545945	черговий
-5.0369368	зробило
-5.31798	характерну
-5.1932235	помилку
-5.31798	ототожнивши
-5.31798	трансцендентним
-4.778177	суб’єктом
-5.31798	непідвладним
-5.31798	безсонню
-5.31798	хворобам
-5.31798	поганому
-5.31798	настроєві
-5.31798	викликаному
-5.31798	низьким
-5.0369368	тиском
-4.237987	уявлення
-5.0369368	уявленням
-5.31798	уявлювання
-5.31798	найдосконалішого
-4.237987	способу
-4.778177	виявиться
-5.31798	безсилим
-5.1932235	сущим
-4.160944	хочуть
-4.690238	застосувати
-4.5545945	метод
-4.4513865	більшою
-5.31798	безсилість
-4.5545945	уявляє
-4.690238	збирається
-5.31798	усвідомить
-4.2981706	вийти
-4.210759	задля
-5.31798	себесущого
-4.1851377	застосування
-4.1851377	насамперед
-5.31798	окремішності
-5.31798	розрізнення
-5.31798	суб’єктомоб’єктом
-4.6171417	планування
-4.160944	порядок
-5.31798	частковостях
-5.1932235	наповнення
-4.5545945	внутрішнього
-5.0369368	порожнього
-4.210759	простору
-5.31798	мається
-4.4513865	увазі
-5.0369368	з’єднує
-3.6831245	дні
-5.0369368	хребет
-3.8653064	долі
-5.31798	неможливий
-4.5545945	осмислення
-5.0369368	вповні
-4.237987	обов’язково
-5.31798	обрахованість
-4.095531	доля
-5.31798	осмислене
-5.1932235	структуруванням
-4.6171417	подібно
-4.5545945	природного
-5.31798	наповненням
-3.6385083	людини
-5.31798	здійснювання
-3.4658592	історії
-4.6171417	природі
-5.31798	осмисленим
-5.1932235	утіленням
-5.31798	передданого
-5.1932235	ідеального
-5.31798	втілювати
-4.4513865	знаючи
-4.3317094	наперед
-4.778177	звикли
-4.8885636	порівняння
-5.0369368	пройшовши
-5.31798	довідаєшся
-4.690238	вів
-5.31798	«осмислення»
-4.095531	моєму
-4.3680563	розумінні
-5.31798	«відання»
-5.1932235	«знання»
-4.210759	виникає
-3.98844	велике
-5.31798	спізнення
-5.1932235	спрощення
-4.004554	велика
-5.31798	неповнота
-4.8885636	рухом
-4.778177	синонімом
-5.31798	відсвічують
-5.0369368	нюанси
-3.7156374	значення
-5.31798	відданість
-5.31798	протистоїть
-4.4513865	кожній
-5.31798	передданості
-4.8885636	долає
-4.8885636	довіра
-3.8773859	любов
-5.31798	свідома
-5.31798	корекція
-5.31798	покірне
-5.1932235	слідування
-4.690238	законам
-4.4513865	прощення
-5.31798	терпимість
-5.1932235	покора
-5.31798	пасивне
-5.31798	перетерплювання
-5.31798	захоплене
-5.31798	безстрашності
-5.0369368	самозречення
-5.1932235	осмисленні
-4.690238	перестає
-5.31798	безповоротною
-5.1932235	втратою
-5.31798	самототожності
-4.690238	зречення
-3.7156374	всього
-5.0369368	випадкового
-5.31798	безладного
-5.31798	бездольного
-5.31798	пасинкування
-5.31798	аморфного
-5.31798	інтенсивнішого
-5.31798	структурованішого
-5.31798	гераклітівська
-5.31798	«сухість»
-5.31798	позбування
-5.0369368	надміру
-5.31798	«вологи»
-5.31798	зрікаючись
-3.8653064	одно
-5.31798	зречешся
-5.31798	доконечно
-4.778177	йдучи
-5.1932235	усвідомлюючи
-4.690238	услід
-3.5324457	слід
-5.1932235	зректися
-5.0369368	безмежність
-5.31798	зречень
-5.31798	гірчичне
-4.690238	зерно
-4.499932	«я»
-4.407726	наявності
-4.6171417	противагу
-5.31798	зреченню
-5.1932235	безмежним
-5.31798	завойовництво
-5.1932235	обмеженість
-4.6171417	важче
-5.1932235	зумовленість
-5.31798	іззовні
-5.31798	ізсередини
-5.31798	врівноважити
-5.1932235	зумовленості
-5.31798	усталити
-5.31798	обравши
-4.8885636	рівновагу
-5.31798	незримим
-5.0369368	рівновага
-4.138027	полягає
-4.021288	їхньої
-4.690238	єдності
-5.31798	взаємоналежності
-5.31798	здобувається
-5.1932235	причетність
-5.31798	причастя
-5.1932235	атом
-4.690238	часткою
-5.1932235	всесвіту
-5.31798	«долею»
-4.407726	долю
-5.31798	причетним
-5.31798	осмисливши
-4.690238	частку
-4.778177	цілого
-4.778177	починаю
-4.0568247	шукати
-3.7507827	відчуття
-5.1932235	безпосередньому
-5.31798	чині
-5.31798	покірним
-5.1932235	безстрашним
-5.31798	проявленням
-5.31798	нікомуненалежності
-5.31798	«нікомуненалежність»
-5.31798	буттю
-4.690238	частка
-4.778177	існуванні
-5.31798	лучить
-5.1932235	усвідомлюю
-4.3680563	дитиною
-5.31798	безсонну
-4.690238	пережив
-4.778177	подібних
-5.0369368	роздумах
-4.004554	свободу
-4.2981706	природу
-4.690238	найбільшою
-5.1932235	вадою
-4.778177	міркування
-4.210759	приходив
-4.3317094	їхньому
-5.1932235	забувалися
-4.138027	кожної
-5.31798	звучала
-4.2981706	тема
-5.31798	роздумуванню
-5.1932235	віддавався
-5.31798	палко
-4.8885636	юний
-5.31798	коханець
-3.7417262	своїй
-4.499932	першій
-5.1932235	забирав
-5.0369368	глибокі
-5.1932235	прозріння
-5.31798	небуденні
-5.1932235	осяяння
-5.31798	геніальні
-4.095531	відкриття
-5.1932235	здогади
-4.6171417	«ти
-4.3317094	маєш
-5.31798	нагороду»
-5.31798	проказував
-4.3680563	маючи
-4.6171417	нічні
-5.31798	самоспалювання
-5.31798	спустошений
-4.778177	розгублено
-5.31798	озирав
-5.1932235	письмовий
-4.3317094	лежали
-5.0369368	двітри
-4.160944	картки
-5.1932235	окремими
-5.1932235	фразами
-5.31798	записаними
-5.1932235	похапцем
-5.31798	розділових
-4.690238	знаків
-4.2981706	боявся
-4.6171417	втратити
-5.0369368	напругу
-4.4513865	потік
-4.778177	дискурсу
-5.31798	спокусившись
-5.31798	записуванням
-5.0369368	об’єднати
-5.31798	уривчасті
-4.138027	схожі
-4.8885636	вигуки
-4.690238	знаки
-4.5545945	відновити
-5.0369368	оту
-5.0369368	цілісність
-5.31798	теоретичного
-4.3680563	бачення
-5.1932235	багату
-5.31798	алюзіями
-5.31798	цитатами
-4.778177	дивовижними
-5.31798	збігами
-5.31798	приголомшливими
-5.31798	відкриттями
-5.31798	спроможеться
-5.31798	воскресити
-5.1932235	оцього
-5.31798	бляклого
-4.5545945	сірому
-5.31798	світанковому
-4.138027	світлі
-5.31798	лазара
-5.31798	невиспані
-4.210759	попереду
-5.31798	бовваніли
-4.8885636	примари
-5.31798	неможливих
-4.407726	марно
-5.31798	намагатимуся
-4.4513865	заснути
-4.1851377	подумати
-4.690238	пробував
-5.31798	переламати
-5.1932235	химерний
-5.31798	робилися
-4.210759	добрі
-5.31798	сповнені
-5.31798	поваги
-4.8885636	постанови
-4.778177	«з
-5.31798	завтрашнього
-5.31798	ранковим
-5.31798	життям»
-4.6171417	існували
-4.407726	способи
-4.6171417	котрих
-5.0369368	сподівався
-5.31798	перехитрувати
-4.778177	нестерпно
-5.1932235	тяжкі
-5.1932235	практичному
-5.31798	втіленні
-4.2981706	однаково
-5.31798	безрезультатні
-4.1162596	виявилося
-5.31798	«еволюційний»
-5.31798	полягав
-5.31798	поступовому
-5.31798	поверненні
-5.31798	«нормального»
-4.407726	режиму
-4.021288	щодня
-4.8885636	прокидатися
-4.095531	годину
-5.31798	раніш
-5.31798	вкладатися
-4.210759	ліжка
-4.407726	оксана
-4.778177	планета
-4.8885636	полин
-5.0369368	довженко
-5.1932235	тарковський
-4.3317094	фон
-5.1932235	трієр
-4.778177	дискурс
-4.778177	жаху
-5.0369368	мапи
-4.690238	книг
-5.1932235	кам’янецьподільський
-4.8885636	руки»
-5.31798	нотабене
-5.1932235	трієра
-5.31798	найпевніший
-4.3317094	знак
-4.5545945	людство
-5.31798	«нічого
-4.4513865	кращого
-5.31798	заслужило»
-4.267037	сміх
-5.31798	психологічного
-5.31798	самозахисту
-5.31798	прояв
-4.407726	соціальної
-5.31798	щирости
-4.3317094	сміятися
-5.31798	попосмієшся
-4.8885636	самоті
-5.0369368	спільний
-5.31798	насущний
-5.31798	міжлюдського
-4.5545945	спільне
-4.407726	родині
-4.8885636	лицем
-5.31798	смерти
-5.31798	церемонійній
-5.31798	вечірці
-5.31798	безнадійносамотньо
-5.31798	ув’язненим
-4.6171417	власному
-5.31798	«рольовому
-5.31798	коконі»
-5.31798	«опікунчий
-5.31798	батько»
-5.31798	«ніжна
-5.31798	матигосподиня»
-5.31798	«проблемна
-5.31798	бунтаркадисидентка»
-4.237987	ніщо
-4.138027	порівняно
-4.1851377	першою
-4.3317094	частиною
-4.3680563	фільму
-5.1932235	маріонетки
-5.31798	зостаються
-5.1932235	наважується
-5.1932235	вилізти
-5.31798	кокона
-5.31798	«узятися
-5.1932235	заспокоїти
-4.3317094	дитину
-5.31798	падінням
-3.699077	неба
-3.6456332	землю
-5.31798	«ігровий
-5.31798	сценарій»
-5.1932235	дитячий
-4.407726	гра
-3.7072783	нарешті
-5.31798	істинно
-5.31798	«магічним»
-4.778177	набуває
-4.267037	сенсу
-5.31798	роз’єднує
-5.31798	ріднить
-3.9579031	такому
-5.1932235	людству
-5.31798	погоджуся
-5.31798	«рольових
-5.31798	коконах»
-5.1932235	продовжували
-5.31798	дефілювати
-5.1932235	партійні
-5.31798	ортодокси
-5.1932235	лектори
-5.31798	цк
-5.31798	компартії
-3.699077	своєю
-4.8885636	поведінкою
-4.6171417	нагадували
-4.6171417	героя
-5.31798	кіфера
-5.31798	сазерленда
-4.6171417	герой
-5.31798	«меланхолії»
-4.004554	двадцять
-5.31798	наслідує
-5.31798	офіцери
-4.690238	кґб
-5.0369368	єдині
-5.1932235	мусили
-4.267037	щасливі
-5.31798	додалося
-3.98844	праці
-4.160944	кінці
-4.1851377	травня
-5.31798	вербувати
-4.4513865	сюжет
-5.1932235	використала
-4.8885636	схожого
-5.0369368	епізоду
-5.31798	дарини
-5.0369368	«музеї
-3.9293728	близько
-3.9729033	трьох
-4.8885636	мужньо
-5.0369368	блукали
-4.4513865	вулицями
-4.690238	свіжому
-5.1932235	повітрі»
-5.1932235	дивуючи
-5.31798	нечастих
-5.0369368	перехожих
-3.7791438	правда
-4.2981706	запропонував
-5.0369368	ресторану
-4.6171417	гуляти
-5.31798	рекомендувалося
-4.690238	офіційно
-5.31798	згодитись
-5.31798	ресторан
-5.31798	крути
-5.31798	«початок
-5.31798	угоди»
-5.1932235	відмовлятися
-5.31798	«співпраці»
-4.8885636	складніше
-5.31798	наковтатися
-5.0369368	зайвих
-5.31798	мікрорентґенів
-4.778177	різниця
-4.4513865	кількома
-3.6602437	менше
-4.6171417	однозначно
-5.31798	привабливішою
-5.1932235	опцією
-4.1162596	країна
-5.1932235	мужчин
-5.31798	накрилася
-5.31798	«меланхолією»
-4.2981706	серйозно
-5.1932235	сприйняли
-5.31798	«планетарний
-5.31798	вибух»
-5.0369368	пак
-4.4513865	російського
-4.075747	президента
-5.31798	«найбільшу
-5.31798	геополітичну
-5.31798	катастрофу
-5.1932235	століття»
-5.1932235	героями
-4.138027	бодай
-3.8421109	ту
-4.690238	зрозуміли
-4.6171417	переваги
-4.690238	жахом
-4.778177	відкрився
-4.5545945	вчитися
-3.8773859	мовою
-5.31798	фонтрієрівського
-5.1932235	міфу
-4.4513865	приймати
-4.778177	сонячні
-5.1932235	ванни
-5.31798	меланхолії
-5.1932235	«чому
-5.0369368	ми»
-5.0369368	всяке
-4.1851377	скоро
-5.1932235	поставлене
-5.31798	колективному
-5.0369368	розумі
-5.31798	людства»
-4.1851377	наявність
-5.31798	відповіди
-3.9729033	комусь
-4.075747	думка
-5.31798	здасться
-5.31798	блюзнірчою
-4.407726	спробувати
-4.160944	уявити
-5.1932235	режисером
-5.1932235	мільярдів
-5.31798	«двоногих
-5.31798	пір’я»
-5.1932235	складаємо
-4.8885636	всьогонавсього
-5.31798	масовку
-4.3680563	доводиться
-5.31798	«майданчики»
-5.1932235	вироблення
-4.138027	обох
-4.3680563	випадках
-5.31798	фукусіми
-5.0369368	обрано
-4.690238	дається
-5.1932235	витримати
-5.0369368	істина
-5.31798	справедлива
-5.31798	індивідів
-4.5545945	вийшло
-5.31798	освоюватися
-5.31798	«новим
-5.31798	жахом»
-4.237987	несе
-5.0369368	доба
-5.31798	екологічних
-5.31798	катастроф
-4.5545945	першими
-5.0369368	випало
-5.31798	народам
-5.31798	чиїй
-3.98844	пам’яті
-5.31798	«досвід
-5.31798	апокаліпсису»
-5.31798	«колективної
-5.31798	смерти»
-4.3317094	доби
-4.8885636	масових
-5.31798	убивств
-5.31798	«кінця
-4.690238	світу»
-3.8309617	якій
-5.0369368	первісний
-5.31798	«космічний»
-4.004554	речей
-4.499932	природа
-5.31798	біологічним
-5.31798	«домом»
-5.31798	японія
-4.4513865	отримала
-5.31798	американського
-5.31798	атомного
-5.1932235	бомбардування
-5.31798	«бомбардування»
-4.690238	залишалося
-5.31798	«невидимим»
-4.778177	таємно
-5.31798	передаваною
-4.8885636	пам’яттю
-5.31798	родинах
-4.6171417	жертв
-4.5545945	донині
-5.1932235	належно
-5.31798	оціненим
-3.8200917	своїми
-5.31798	цивілізаційними
-5.1932235	наслідками
-4.5545945	мушу
-4.2981706	коротко
-4.210759	пояснити
-5.31798	«тридцять
-5.0369368	рік»
-3.809487	дещо
-5.31798	конспіративно
-5.31798	йменовано
-5.1932235	живій
-4.1851377	мові
-4.778177	офіційна
-5.1932235	голодомор
-5.31798	недавньою
-4.5545945	старшого
-5.31798	прищепилася
-5.1932235	відбився
-5.31798	травмою
-4.021288	друга
-4.6171417	світова
-3.6456332	війна
-5.31798	онтологічною
-5.31798	точній
-5.1932235	смертей
-5.31798	найправдоподібніше
-4.4513865	встановлено
-5.31798	мільйонів»
-5.31798	ножиці
-5.31798	макабричні
-4.1162596	чітко
-4.3317094	ясно
-5.1932235	вказати
-4.690238	пальцем
-5.1932235	винуватців
-5.1932235	спотикання
-4.1851377	становить
-4.690238	предмет
-4.4513865	політичної
-5.31798	кон’юнктури
-5.31798	збурює
-4.8885636	уми
-5.0369368	украй
-3.9579031	важливо
-5.31798	людстві
-5.0369368	здоровий
-5.1932235	глузд
-5.31798	мученицька
-4.407726	мільйонів
-4.237987	причини
-5.31798	восьмий
-4.778177	десяток
-4.2981706	літ
-5.31798	«ніхто
-5.31798	відповідає»
-4.8885636	простотаки
-5.31798	голоблею
-5.1932235	стирчить
-5.31798	урозріз
-5.1932235	засадничими
-4.407726	правилами
-5.0369368	цивілізаційного
-5.31798	«природного
-5.31798	права»
-5.31798	кантівським
-5.31798	категоричним
-5.31798	імперативом
-5.31798	погодити
-5.31798	впадаючи
-5.31798	шизофренію
-4.407726	вийде
-5.0369368	гіпотетично
-5.0369368	либонь
-5.0369368	найтяжче
-5.31798	піввікову
-5.31798	заборону
-5.31798	оплакувати
-4.407726	мертвих
-5.31798	вдаряє
-5.31798	підвалинах
-5.0369368	ідентичности
-5.31798	гомо
-5.31798	сапіенса
-4.407726	відколи
-5.0369368	вибрався
-5.1932235	печери
-3.9579031	мої
-5.31798	студентські
-4.095531	розмови
-3.809487	«про
-5.31798	кваліфіковано
-5.31798	«антирадянську
-5.31798	агітацію»
-5.31798	автобіографічному
-5.1932235	романі
-4.778177	антона
-5.31798	санченка
-4.499932	спогад
-5.31798	моряк
-4.3317094	радянського
-5.1932235	флоту
-5.31798	прочитавши
-5.0369368	газеті
-4.499932	доти
-5.31798	недомовками
-4.021288	чув
-4.004554	діда
-4.778177	бабою
-3.9293728	сидів
-5.0369368	порту
-5.1932235	лавочці
-5.0369368	газетою
-3.9293728	руках
-5.1932235	нестримно
-4.5545945	плакав
-5.1932235	психології
-4.778177	зветься
-5.31798	«травмою
-5.1932235	покоління»
-5.31798	повторюю
-5.31798	неназваного
-5.31798	«старого
-5.31798	жаху»
-4.8885636	«люди
-5.1932235	людьми»
-5.1932235	удар
-5.31798	сталінської
-5.31798	колективізації
-5.31798	вицілено
-4.778177	глибше
-5.1932235	вістря
-5.31798	прийшлось
-5.31798	найдревніших
-5.1932235	аграрних
-5.1932235	цивілізацій
-5.31798	«народ
-5.31798	воїнів
-5.31798	орачів»
-4.8885636	зуміла
-5.31798	натиск
-4.4513865	степу
-4.6171417	бувши
-5.31798	розташованою
-4.3680563	найкращих
-5.1932235	чорноземах
-4.690238	зосереджено
-4.690238	чверть
-5.31798	планетарного
-5.31798	ресурсу
-3.8309617	своєму
-4.2981706	рахунку
-4.8885636	географія
-5.31798	легендарні
-5.31798	чорноземи
-5.31798	відіграли
-4.778177	меншу
-4.499932	ліси
-5.31798	долях
-4.3317094	степ
-5.1932235	азії
-4.3317094	впродовж
-4.8885636	минулих
-4.778177	віків
-5.31798	чинили
-4.690238	поколінь
-5.31798	руйнівний
-5.31798	всякої
-4.075747	волі
-5.0369368	незмінно
-5.31798	перекривало
-5.31798	непохитне
-5.31798	непоборне
-4.160944	закон
-4.499932	переконання
-5.31798	«земля
-5.31798	прогодує»
-5.1932235	годувала
-4.2981706	світової
-4.778177	воєнних
-5.1932235	розрухів
-5.31798	заїздах
-4.095531	частини
-3.7694829	згодом
-5.1932235	радянською
-4.038693	хліб
-4.8885636	подавали
-5.0369368	безкоштовним
-5.1932235	додатком
-5.31798	сильніший
-5.0369368	диявола
-5.31798	упорядкований
-5.31798	сотворіння
-4.499932	«і
-5.31798	“оце
-4.095531	дав
-5.1932235	ярину
-5.1932235	розсіває
-4.499932	насіння
-4.1851377	всій
-4.267037	кожне
-4.160944	дерево
-4.8885636	плід
-5.31798	деревний
-3.9293728	нехай
-5.31798	вам”»
-5.31798	першооснова
-4.267037	решта
-5.0369368	тяжкий
-5.1932235	труд
-5.31798	поті
-4.5545945	чола
-5.31798	«насіння»
-5.1932235	їжею
-5.31798	періодична
-4.3317094	необхідність
-5.1932235	боронити
-5.31798	зброєю
-5.31798	«од
-5.31798	лукавого»
-4.407726	наслідок
-5.0369368	гріхопадіння
-3.8773859	головне
-4.1162596	щиро
-5.31798	трудишся
-5.1932235	жодні
-5.31798	катаклізми
-5.0369368	людей»
-4.499932	страшні
-4.8885636	твоїй
-5.0369368	стороні
-4.3680563	план
-3.5916607	яким
-5.31798	споконвічний
-5.31798	світопорядок
-5.1932235	зруйнований
-5.31798	співалося
-4.6171417	російській
-4.6171417	версії
-5.31798	«інтернаціоналу»
-5.31798	основанья»
-5.31798	економікополітичний
-4.499932	вважати
-5.1932235	економічну
-4.8885636	свідоме
-5.1932235	житниці
-4.8885636	пустелю
-4.3680563	дійсності
-5.31798	замаскованорелігійний
-5.31798	«богоборчий»
-5.31798	секулярна
-4.499932	свідомість
-4.237987	лишень
-5.31798	підставляє
-5.31798	«бога»
-4.778177	закони
-5.31798	біоценозу
-5.1932235	концепту
-5.31798	апріорної
-5.31798	даности
-5.31798	«дарованости»
-5.1932235	всяких
-5.31798	«плодів
-5.31798	земних»
-5.31798	обробітку
-5.1932235	їжу»
-4.5545945	ставить
-5.0369368	ніякі
-5.31798	харчові
-4.8885636	індустрії
-5.31798	генна
-5.31798	інженерія
-5.0369368	змінили
-4.2981706	знаємо
-5.1932235	їмо
-5.31798	переробленим
-5.31798	«застали»
-4.8885636	планеті
-5.31798	«готовим»
-5.31798	постаровинному
-4.5545945	«що
-5.31798	послав»
-5.0369368	сталін
-3.4207935	же
-5.31798	зазіхнув
-5.31798	«абсолютного
-5.31798	дарівника»
-3.7507827	дає
-5.31798	схоче
-5.31798	одібрати
-5.0369368	«насіння
-5.31798	міфологічного
-5.31798	«батькагодувальника»
-4.778177	єдиному
-4.8885636	належиться
-4.5545945	відтепер
-4.6171417	складати
-5.31798	подячну
-5.0369368	молитву
-4.3317094	організація
-4.1851377	літніх
-4.3317094	шкіл
-4.690238	обдарованих
-3.475462	дітей
-4.3680563	додаток
-4.3317094	листа
-4.778177	мон
-3.809487	№
-4.3680563	міністерство
-3.902602	освіти
-4.021288	науки
-3.8200917	підготовки
-4.4513865	підготування
-4.5545945	надаються
-4.4513865	рекомендації
-5.0369368	рекомендується
-5.31798	рекомендовано
-4.237987	перебування
-4.1851377	школах
-5.1932235	поглибити
-5.31798	систематизувати
-4.004554	учнів
-4.038693	навчальних
-4.3317094	предметів
-3.5215135	різних
-4.778177	галузей
-5.31798	розвинути
-4.267037	школярів
-4.499932	науководослідницької
-5.0369368	пошукової
-5.31798	експериментальної
-5.1932235	винахідницької
-4.778177	сформувати
-4.6171417	навички
-4.8885636	команді
-5.31798	розширити
-5.1932235	світогляд
-5.1932235	юнацтва
-5.0369368	гармонійно
-5.31798	поєднати
-5.1932235	пізнавальну
-5.0369368	виховну
-3.7507827	роботу
-4.8885636	активним
